tree
version=v3
num_class=1
num_tree_per_iteration=1
label_index=0
max_feature_idx=19
objective=regression
feature_names=Column_0 Column_1 Column_2 Column_3 Column_4 Column_5 Column_6 Column_7 Column_8 Column_9 Column_10 Column_11 Column_12 Column_13 Column_14 Column_15 Column_16 Column_17 Column_18 Column_19
feature_infos=[0:1] [0:1] [0:1] [0:0.99999999999999989] [0:1] [0:1] [0:0.99999999999999989] [0:1.0000000000000002] [0:1] [0:1] [0:1] [0:1] [0:1] [0:1] [0:1] [0:1] [0:1] [0:1] [0:1] [0:1]
tree_sizes=2800 2885 2875 2877 2885 2898 2890 2910 2898 2890 2890 2905 2899 2892 2873 2870 2880 2881 2909 2892 2874 2900 2915 2902 2880 2917 2906 2859 2845 2770 2840 2893 2843 2821 2899 2831 2848 2889 2878 2861 2845 2827 2777 2838 2781 2878 2830 2773 2796 2867 2829 2875 2820 2833 2811 2824 2861 2856 2874 2857 2787 2776 2804 2817 2809 2773 2838 2763 2807 2827 2768 2779 2835 2828 2785 2843 2828 2858 2805 2766 2853 2817 2787 2806 2800 2757 2853 2816 2862 2818 2787 2859 2805 2815 2805 2823 2838 2810 2765 2781

Tree=0
num_leaves=31
num_cat=0
split_feature=7 8 5 8 8 8 8 7 8 8 8 16 5 5 8 8 7 17 5 7 17 5 5 4 7 4 8 8 5 8
split_gain=545836 274740 233333 114019 81489.9 97347 167764 60688.4 134604 60654.4 243544 169904 97614.7 61514.5 161221 60419.5 38712.7 38198.6 35848.4 32616.2 31157.4 35464.4 31076 59873.3 28202.5 44561.2 27035.2 68927.8 23247.5 22603
threshold=0.77884615384615397 0.93750000000000011 0.22054794520547949 0.18750000000000003 0.93750000000000011 0.81250000000000011 0.68750000000000011 0.91346153846153866 0.56250000000000011 0.81250000000000011 0.68750000000000011 1.0000000180025095e-35 0.25342465753424664 0.28082191780821925 0.31250000000000006 1.0000000180025095e-35 0.91346153846153866 1.0000000180025095e-35 0.62602739726027401 0.89423076923076927 1.0000000180025095e-35 0.67808219178082207 0.07808219178082193 0.75000000000000011 0.87500000000000011 1.0000000180025095e-35 0.43750000000000006 0.56250000000000011 0.012328767123287674 0.56250000000000011
decision_type=2 2 2 2 2 2 2 2 2 2 2 2 2 2 2 2 2 2 2 2 2 2 2 2 2 2 2 2 2 2
left_child=1 9 -3 24 5 6 7 29 -9 10 13 -12 -13 14 15 22 -7 -11 -19 -8 -4 -22 23 -1 -2 -26 -15 -28 -16 -5
right_child=3 2 20 4 -6 16 19 8 -10 17 11 12 -14 26 28 -17 -18 18 -20 -21 21 -23 -24 -25 25 -27 27 -29 -30 -31
leaf_value=10.706768695315969 11.173981604430223 11.413240097938059 9.7348847141438988 9.9074006769555023 11.091844134663472 9.1060650600378068 11.645267316463155 10.001617253517024 11.231071707495545 9.1788625625665397 9.9278410673454225 9.6057653698005669 11.578204281423591 9.3833125785270681 10.194151184797002 10.193690501414443 9.8894175964113717 9.9860867236501445 9.1653600618529403 10.767756216779851 10.441738624134295 9.4058033883001961 9.3715620716657408 9.2817819336150897 11.162651667224701 10.328124484353962 9.8755859363591476 9.3200877540527767 9.363692041049628 9.3928709938104493
leaf_weight=624 1102 1431 2710 3181 857 1173 674 3970 1148 5182 4815 320 1162 17612 351 5702 1365 1391 862 1140 1739 408 1772 559 921 2096 4452 4483 8503 1167
leaf_count=624 1102 1431 2710 3181 857 1173 674 3970 1148 5182 4815 320 1162 17612 351 5702 1365 1391 862 1140 1739 408 1772 559 921 2096 4452 4483 8503 1167
internal_value=9.80223 9.66324 10.291 10.2761 10.1456 10.0869 10.2128 10.044 10.2774 9.59493 9.6343 10.216 11.1523 9.55116 9.69665 10.0035 9.52737 9.32832 9.67208 11.0938 9.96032 10.2449 9.63653 10.0334 10.741 10.5829 9.45519 9.59687 9.39661 9.7693
internal_weight=0 64078 6288 18794 14675 13818 11280 9466 5118 57790 50355 6297 1482 44058 17511 8657 2538 7435 2253 1814 4857 2147 2955 1183 4119 3017 26547 8935 8854 4348
internal_count=82872 64078 6288 18794 14675 13818 11280 9466 5118 57790 50355 6297 1482 44058 17511 8657 2538 7435 2253 1814 4857 2147 2955 1183 4119 3017 26547 8935 8854 4348
is_linear=0
shrinkage=1


Tree=1
num_leaves=31
num_cat=0
split_feature=7 8 5 8 8 8 8 4 8 8 16 5 5 8 8 8 7 17 5 7 17 5 5 4 7 4 5 8 8 5
split_gain=442127 222539 189000 92355.4 66006.8 78851 135889 53715.3 49130.1 197270 137622 79067.9 49826.8 130589 48939.8 32468.2 31357.3 30940.9 29193.6 26419.1 25237.5 28726.2 25171.5 48497.4 22844.1 36094.5 22535.8 21898.5 55831.5 20401.8
threshold=0.77884615384615397 0.93750000000000011 0.22054794520547949 0.18750000000000003 0.93750000000000011 0.81250000000000011 0.68750000000000011 1.0000000180025095e-35 0.81250000000000011 0.68750000000000011 1.0000000180025095e-35 0.25342465753424664 0.28082191780821925 0.31250000000000006 1.0000000180025095e-35 0.56250000000000011 0.91346153846153866 1.0000000180025095e-35 0.62054794520547951 0.89423076923076927 1.0000000180025095e-35 0.67808219178082207 0.07808219178082193 0.75000000000000011 0.87500000000000011 1.0000000180025095e-35 0.36301369863013705 0.43750000000000006 0.56250000000000011 0.96027397260273994
decision_type=2 2 2 2 2 2 2 2 2 2 2 2 2 2 2 2 2 2 2 2 2 2 2 2 2 2 2 2 2 2
left_child=1 8 -3 24 5 6 7 15 9 12 -11 -12 13 14 22 -5 -7 -10 -19 -8 26 -22 23 -1 -2 -26 -4 -14 -29 -27
right_child=3 2 20 4 -6 16 19 -9 17 10 11 -13 27 -15 -16 -17 -18 18 -20 -21 21 -23 -24 -25 25 29 -28 28 -30 -31
leaf_value=0.81408770986092405 1.2345793564501346 1.4499119493613122 0.25430555085464712 0.41972322095612657 1.160655579057847 -0.62654557747842599 1.6587364574391341 0.079628177277592541 -0.56102780725642332 0.11305282784152007 -0.1768152899015695 1.5983796922243145 -0.37702280185109044 -0.3650514967444376 0.35231733444979074 1.2816888678631708 0.078471715562182034 0.17917390043042153 -0.55443684986331965 0.86897649516139119 0.57556063863306883 -0.35678106983575752 -0.38759825316301927 -0.46840038824166719 1.2243823950090946 0.68716154366021076 -0.32467367799821206 0.066023214247685091 -0.43392514583635533 0.018150836758649171
leaf_weight=624 1102 1431 1236 1801 857 1173 674 7088 5182 4815 320 1162 17612 8854 5702 577 1365 1343 910 1140 1739 408 1772 559 921 1426 1474 4452 4483 670
leaf_count=624 1102 1431 1236 1801 857 1173 674 7088 5182 4815 320 1162 17612 8854 5702 577 1365 1343 910 1140 1739 408 1772 559 921 1426 1474 4452 4483 670
internal_value=0 -0.125091 0.439871 0.426495 0.309052 0.256235 0.369546 0.217606 -0.186563 -0.151133 0.372413 1.21507 -0.225961 -0.0950215 0.181153 0.628871 -0.24737 -0.426517 -0.117136 1.16242 0.142287 0.398385 -0.149127 0.208077 0.844918 0.702589 -0.0606079 -0.312332 -0.184818 0.473308
internal_weight=0 64078 6288 18794 14675 13818 11280 9466 57790 50355 6297 1482 44058 17511 8657 2378 2538 7435 2253 1814 4857 2147 2955 1183 4119 3017 2710 26547 8935 2096
internal_count=82872 64078 6288 18794 14675 13818 11280 9466 57790 50355 6297 1482 44058 17511 8657 2378 2538 7435 2253 1814 4857 2147 2955 1183 4119 3017 2710 26547 8935 2096
is_linear=0
shrinkage=0.1


Tree=2
num_leaves=31
num_cat=0
split_feature=7 8 5 8 8 8 8 7 8 8 8 16 5 5 8 8 5 5 7 7 17 5 5 4 8 5 7 4 8 5
split_gain=358123 180257 153090 74807.9 53465.5 63869.3 110070 43823.9 100343 39795.3 159789 111474 64045 40359.7 105777 39641.2 25614 30960.3 25399.4 21399.5 20442.3 23268.2 20389 39282.9 18905.1 18830.5 18503.7 29236.6 18308.4 21839.5
threshold=0.77884615384615397 0.93750000000000011 0.22054794520547949 0.18750000000000003 0.93750000000000011 0.81250000000000011 0.68750000000000011 0.91346153846153866 0.56250000000000011 0.81250000000000011 0.68750000000000011 1.0000000180025095e-35 0.25342465753424664 0.28082191780821925 0.31250000000000006 1.0000000180025095e-35 0.44520547945205485 0.62602739726027401 0.91346153846153866 0.89423076923076927 1.0000000180025095e-35 0.67808219178082207 0.07808219178082193 0.75000000000000011 1.0000000180025095e-35 0.012328767123287674 0.87500000000000011 1.0000000180025095e-35 0.56250000000000011 0.91643835616438374
decision_type=2 2 2 2 2 2 2 2 2 2 2 2 2 2 2 2 2 2 2 2 2 2 2 2 2 2 2 2 2 2
left_child=1 9 -3 26 5 6 7 28 -9 10 13 -12 -13 14 15 22 -11 -18 -7 -8 -4 -22 23 -1 -15 -16 -2 -28 -5 -30
right_child=3 2 20 4 -6 18 19 8 -10 16 11 12 -14 24 25 -17 17 -19 -20 -21 21 -23 -24 -25 -26 -27 27 -29 29 -31
leaf_value=0.73267892767221499 1.1111213929045223 1.3049207797590292 -0.054547092087044495 0.086693664134899609 1.0445900443137179 -0.56389100937790482 1.4928627925297628 0.15606008690129733 1.2175804760813298 -0.53836158196713946 0.10174755921668828 -0.15913376779993996 1.4385417483126659 -0.47021990491607835 0.38923709518846628 0.31708560439364208 0.14545000046020962 -0.49301442859892908 0.07062453661078158 0.78207883669888567 0.51800457188455773 -0.32110296823906115 -0.34883843252674995 -0.4215603361829236 -0.24344368463860869 -0.358176136397026 1.1019441490448874 0.42597712724263437 -0.49916488812977655 1.1478052391403024
leaf_weight=624 1102 1431 2710 3181 857 1173 674 3970 1148 4392 4815 320 1162 4408 351 5702 1583 1460 1365 1140 1739 408 1772 559 22139 8503 921 2096 1080 87
leaf_count=624 1102 1431 2710 3181 857 1173 674 3970 1148 4392 4815 320 1162 4408 351 5702 1583 1460 1365 1140 1739 408 1772 559 22139 8503 921 2096 1080 87
internal_value=0 -0.112582 0.395884 0.383846 0.278147 0.230612 0.332592 0.195846 0.394166 -0.167907 -0.13602 0.335172 1.09356 -0.203365 -0.0855194 0.163038 -0.383865 -0.160879 -0.222633 1.04617 0.128058 0.358547 -0.134214 0.187269 -0.281099 -0.328546 0.760426 0.63233 -0.0375958 -0.376383
internal_weight=0 64078 6288 18794 14675 13818 11280 9466 5118 57790 50355 6297 1482 44058 17511 8657 7435 3043 2538 1814 4857 2147 2955 1183 26547 8854 4119 3017 4348 1167
internal_count=82872 64078 6288 18794 14675 13818 11280 9466 5118 57790 50355 6297 1482 44058 17511 8657 7435 3043 2538 1814 4857 2147 2955 1183 26547 8854 4119 3017 4348 1167
is_linear=0
shrinkage=0.1


Tree=3
num_leaves=31
num_cat=0
split_feature=7 8 5 8 8 8 8 4 8 8 16 5 5 8 8 5 5 7 8 5 5 5 5 5 8 8 5 5 4 5
split_gain=290079 146008 124003 60594.4 43307.1 51734.2 89156.5 38540 32234.2 129429 90294 51876.4 32691.3 85679.5 32109.4 20747.4 25216.2 20573.5 19594.3 17682.9 16824.3 31565.8 18672.8 19884.9 16592.9 45223.6 16885.8 16515.1 31819.1 15252.7
threshold=0.77884615384615397 0.93750000000000011 0.22054794520547949 0.18750000000000003 0.93750000000000011 0.81250000000000011 0.68750000000000011 1.0000000180025095e-35 0.81250000000000011 0.68750000000000011 1.0000000180025095e-35 0.25342465753424664 0.28082191780821925 0.31250000000000006 1.0000000180025095e-35 0.44520547945205485 0.62054794520547951 0.91346153846153866 0.56250000000000011 0.91643835616438374 0.67808219178082207 0.48356164383561651 0.36301369863013705 0.27534246575342475 0.43750000000000006 0.56250000000000011 0.78767123287671248 0.07808219178082193 0.75000000000000011 0.012328767123287674
decision_type=2 2 2 2 2 2 2 2 2 2 2 2 2 2 2 2 2 2 2 2 2 2 2 2 2 2 2 2 2 2
left_child=1 8 -3 -2 5 6 7 18 9 12 -11 -12 13 14 27 -10 -17 -7 -5 -8 21 22 23 -4 26 -26 -14 28 -1 -15
right_child=3 2 20 4 -6 17 19 -9 15 10 11 -13 24 29 -16 16 -18 -19 -20 -21 -22 -23 -24 -25 25 -27 -28 -29 -30 -31
leaf_value=0.65941105546095435 0.6843833424717447 1.1744286929614514 -0.27249289097248758 0.36214490600037852 0.94013104729480446 -0.50750191568159586 1.2978179379314336 0.059387336093835168 -0.4845254281569249 0.091572799229025392 -0.14322038345213514 1.2946876039244428 -0.31797009015489319 0.35031339386080068 0.28537703480173632 0.1405314633082477 -0.43522158052111237 0.063562103790459609 1.0317619194242735 0.66793658285606916 -0.257316106139519 0.54983450516918242 -0.33829670944603896 0.55176069165886332 0.083765260916838585 -0.3661882622476022 0.79657178794027028 -0.3139545798879832 -0.37940430366075956 -0.3223585154161337
leaf_weight=624 4119 1431 476 1801 857 1173 788 7088 4392 4815 320 1162 17475 351 5702 1535 1508 1365 577 1026 970 1595 1056 760 4452 4483 137 1772 559 8503
leaf_count=624 4119 1431 476 1801 857 1173 788 7088 4392 4815 320 1162 17475 351 5702 1535 1508 1365 577 1026 970 1595 1056 760 4452 4483 137 1772 559 8503
internal_value=0 -0.101323 0.356296 0.345461 0.250332 0.207551 0.299332 0.176261 -0.151116 -0.122418 0.301655 0.984208 -0.183029 -0.0769674 0.146734 -0.345479 -0.144791 -0.200369 0.524621 0.941556 0.115252 0.208226 -0.0294982 0.23433 -0.252989 -0.141992 -0.3093 -0.120793 0.168542 -0.295692
internal_weight=0 64078 6288 18794 14675 13818 11280 9466 57790 50355 6297 1482 44058 17511 8657 7435 3043 2538 2378 1814 4857 3887 2292 1236 26547 8935 17612 2955 1183 8854
internal_count=82872 64078 6288 18794 14675 13818 11280 9466 57790 50355 6297 1482 44058 17511 8657 7435 3043 2538 2378 1814 4857 3887 2292 1236 26547 8935 17612 2955 1183 8854
is_linear=0
shrinkage=0.1


Tree=4
num_leaves=31
num_cat=0
split_feature=7 8 5 8 8 8 8 7 8 8 8 16 5 5 8 8 5 5 7 8 4 7 4 5 8 8 5 5 7 8
split_gain=234964 118267 100442 49081.5 35078.7 41904.7 72216.8 31657.9 75409.3 26109.7 104838 73138.2 42019.9 26480 69400.4 26008.6 16805.4 20441.5 16664.6 16080.5 23199.7 14988 23681.6 16525.5 22853.4 14829.8 17690 17593.4 14397.6 14377
threshold=0.77884615384615397 0.93750000000000011 0.22054794520547949 0.18750000000000003 0.93750000000000011 0.81250000000000011 0.68750000000000011 0.91346153846153866 0.56250000000000011 0.81250000000000011 0.68750000000000011 1.0000000180025095e-35 0.25342465753424664 0.28082191780821925 0.31250000000000006 1.0000000180025095e-35 0.44520547945205485 0.62602739726027401 0.91346153846153866 0.43750000000000006 1.0000000180025095e-35 0.87500000000000011 1.0000000180025095e-35 0.96027397260273994 1.0000000180025095e-35 0.56250000000000011 0.91643835616438374 0.88356164383561653 0.89423076923076927 1.0000000180025095e-35
decision_type=2 2 2 2 2 2 2 2 2 2 2 2 2 2 2 2 2 2 2 2 2 2 2 2 2 2 2 2 2 2
left_child=1 9 -3 21 5 6 7 25 19 10 13 -12 -13 14 15 -1 -11 -18 -7 20 -9 -2 -23 -24 -25 27 -27 -5 -8 -15
right_child=3 2 -4 4 -6 18 28 8 -10 16 11 12 -14 29 -16 -17 17 -19 -20 -21 -22 22 23 24 -26 26 -28 -29 -30 -31
leaf_value=-0.1087133093079627 0.9315709438234967 1.0569858383834445 0.10372691791468334 0.24748706727984879 0.84611794674940755 -0.45675171144316185 1.2137947461017871 0.31541093645677026 1.0410108430528502 -0.43607288495480989 0.082415516767360711 -0.12889834583271295 1.1652188723272101 -0.39261455513150317 -0.26612254832322713 0.25683933574259521 0.11859766402724832 -0.40019082886001023 0.057205886013341915 0.39619227467394064 -0.288634098009868 0.92331139421693165 0.50740932440241548 -0.68048006003488326 0.48759266813507396 -0.45518712387565757 1.0270860299296762 -0.24323605564648162 0.63077848013653837 -0.194852590631164
leaf_weight=2955 1102 1431 4857 2044 857 1173 674 1124 1148 4392 4815 320 1162 4408 8854 5702 1583 1460 1365 1382 1464 921 1426 334 336 1080 87 1137 1140 22139
leaf_count=2955 1102 1431 4857 2044 857 1173 674 1124 1148 4392 4815 320 1162 4408 8854 5702 1583 1460 1365 1382 1464 921 1426 334 336 1080 87 1137 1140 22139
internal_value=0 -0.0911911 0.320666 0.310915 0.225299 0.186795 0.269399 0.158635 0.327194 -0.136004 -0.110176 0.271489 0.885787 -0.164726 -0.0692707 0.132061 -0.310931 -0.130312 -0.180332 0.120781 -0.02629 0.615945 0.500658 0.314941 -0.0947003 -0.0397749 -0.344683 0.0720856 0.847401 -0.22769
internal_weight=0 64078 6288 18794 14675 13818 11280 9466 5118 57790 50355 6297 1482 44058 17511 8657 7435 3043 2538 3970 2588 4119 3017 2096 670 4348 1167 3181 1814 26547
internal_count=82872 64078 6288 18794 14675 13818 11280 9466 5118 57790 50355 6297 1482 44058 17511 8657 7435 3043 2538 3970 2588 4119 3017 2096 670 4348 1167 3181 1814 26547
is_linear=0
shrinkage=0.1


Tree=5
num_leaves=31
num_cat=0
split_feature=7 8 5 8 8 8 8 7 8 5 8 8 16 5 2 5 5 5 17 5 7 5 8 8 5 5 8 5 8 8
split_gain=190321 95795.9 81435.4 39756 28413.8 33942.8 58495.6 25642.9 61081.6 21777.6 18932.3 82890.1 62157 34036.1 16156.5 39054.2 14990 16657.4 13882.9 15363.4 13784.2 13667.1 57155.9 21618 13632 18596.4 13548.4 13162.4 13153.1 36703.6
threshold=0.77884615384615397 0.93750000000000011 0.22602739726027402 0.18750000000000003 0.93750000000000011 0.81250000000000011 0.68750000000000011 0.91346153846153866 0.56250000000000011 0.020547945205479454 0.81250000000000011 0.68750000000000011 1.0000000180025095e-35 0.25342465753424664 1.0000000180025095e-35 0.54383561643835632 0.44520547945205485 0.62054794520547951 1.0000000180025095e-35 0.67808219178082207 0.89423076923076927 0.28082191780821925 0.31250000000000006 1.0000000180025095e-35 0.36301369863013705 0.27534246575342475 0.31250000000000006 0.78767123287671248 0.43750000000000006 0.56250000000000011
decision_type=2 2 2 2 2 2 2 2 2 2 2 2 2 2 2 2 2 2 2 2 2 2 2 2 2 2 2 2 2 2
left_child=1 9 -3 -2 5 6 7 26 -9 -1 11 21 14 -14 -13 -16 -12 -18 24 -20 -7 22 23 -11 25 -4 -5 28 -23 -30
right_child=3 2 18 4 -6 20 -8 8 -10 10 16 12 13 -15 15 -17 17 -19 19 -21 -22 27 -24 -25 -26 -27 -28 -29 29 -31
leaf_value=0.20282964390211589 0.55435050469521341 0.93867273910477866 -0.33547128499571788 0.30971332934778184 0.761506141482308 -0.44941687135705871 0.76266075637114017 0.10870261531729915 0.93690974390692361 -0.12805976604749361 -0.4098102958488925 -0.15062267574142604 -0.11600850007213014 1.0486969469644116 1.2161460880982982 0.066193083284170756 0.11461854779340497 -0.35333165423252894 0.40820225002303029 -0.27363375473730994 0.026860682187127134 -0.26175367457372828 -0.27535938900332679 0.22046906906294395 -0.26638221315252303 0.48621193018180897 -0.12598297050782684 0.55328923948273256 0.092187475680177183 -0.3152278932813648
leaf_weight=1988 4119 1475 432 900 857 1008 1814 3970 1148 2691 4128 2115 320 1162 343 2125 1535 1508 1739 408 1530 17475 8073 5255 1474 760 3448 227 4410 4435
leaf_count=1988 4119 1475 432 900 857 1008 1814 3970 1148 2691 4128 2115 320 1162 343 2125 1535 1508 1739 408 1530 17475 8073 5255 1474 760 3448 227 4410 4435
internal_value=0 -0.0820719 0.288599 0.279824 0.202769 0.168116 0.242459 0.142771 0.294475 -0.122404 -0.133991 -0.111624 0.234245 0.797209 0.0521997 0.226012 -0.285676 -0.117281 0.0893769 0.278631 -0.162299 -0.160904 -0.0879593 0.102436 -0.0630345 0.188421 -0.0357974 -0.204921 -0.21146 -0.112096
internal_weight=0 64078 6288 18794 14675 13818 11280 9466 5118 57790 55802 48631 6065 1482 4583 2468 7171 3043 4813 2147 2538 42566 16019 7946 2666 1192 4348 26547 26320 8845
internal_count=82872 64078 6288 18794 14675 13818 11280 9466 5118 57790 55802 48631 6065 1482 4583 2468 7171 3043 4813 2147 2538 42566 16019 7946 2666 1192 4348 26547 26320 8845
is_linear=0
shrinkage=0.1


Tree=6
num_leaves=31
num_cat=0
split_feature=7 8 5 8 8 8 8 4 5 8 8 16 5 5 5 5 5 5 7 4 5 8 5 7 5 5 5 5 5 8
split_gain=154160 77594.7 66179.3 32202.3 23015.1 27493.7 47381.4 21675.7 17793.2 14986.5 67767.5 50174.7 27798.5 13207.5 32229 13939.4 12200.8 13062.6 12140.3 19182.1 13385.6 18511.2 11914.1 11215.3 10811.4 22045.1 12925.1 13643.3 10347.5 45044.5
threshold=0.77884615384615397 0.93750000000000011 0.22054794520547949 0.18750000000000003 0.93750000000000011 0.81250000000000011 0.68750000000000011 1.0000000180025095e-35 0.023287671232876717 0.81250000000000011 0.68750000000000011 1.0000000180025095e-35 0.24794520547945212 0.48356164383561651 0.57123287671232881 0.76301369863013713 0.43972602739726036 0.62602739726027401 0.87500000000000011 1.0000000180025095e-35 0.96027397260273994 1.0000000180025095e-35 0.91643835616438374 0.91346153846153866 0.67808219178082207 0.48356164383561651 0.36301369863013705 0.28082191780821925 0.28082191780821925 0.31250000000000006
decision_type=2 2 2 2 2 2 2 2 2 2 2 2 2 2 2 2 2 2 2 2 2 2 2 2 2 2 2 2 2 2
left_child=1 8 -3 18 5 6 7 -5 -1 10 28 13 -13 -12 -15 -16 -11 -18 -2 -20 -21 -22 -8 -7 25 26 27 -4 29 -10
right_child=3 2 24 4 -6 23 22 -9 9 16 11 12 -14 14 15 -17 17 -19 19 20 21 -23 -24 -25 -26 -27 -28 -29 -30 -31
leaf_value=0.1583968701653049 0.78297877595683874 0.8574199540685058 -0.2082688980963337 0.389746367471971 0.68535554028032486 -0.37283441439486936 0.97882508579925231 0.040845117244881088 0.088399168697940733 -0.37162819497049593 -0.13912953775478762 -0.16817730107325149 0.9292772256734978 0.86515423909677258 -0.092959119099970844 0.74695924884373588 0.086937168219362593 -0.32483858059932263 0.7755451899460728 0.40123334161651175 -0.66786709788316745 0.38339835194249949 0.4617990020560882 0.048799230122304228 -0.21501394783117878 0.44365814124471958 -0.29740038892211457 0.46403188114747762 -0.18442890293224098 -0.24997924463578466
leaf_weight=2366 1102 1431 524 2378 857 1173 788 7088 7808 4032 2068 286 1196 567 1676 224 1631 1460 921 1426 334 336 1026 1365 970 1595 1056 712 26547 7929
leaf_count=2366 1102 1431 524 2378 857 1173 788 7088 7808 4032 2068 286 1196 567 1676 224 1631 1460 921 1426 334 336 1026 1365 970 1595 1056 712 26547 7929
internal_value=0 -0.0738648 0.25974 0.251841 0.182492 0.151304 0.218213 0.128494 -0.110163 -0.121628 -0.101659 0.212342 0.717488 0.0472639 0.203511 0.00606284 -0.257037 -0.107561 0.498915 0.395157 0.228012 -0.140665 0.686395 -0.146069 0.0836471 0.158178 -0.0404874 0.179011 -0.146341 -0.0820909
internal_weight=0 64078 6288 18794 14675 13818 11280 9466 57790 55424 48301 6017 1482 4535 2467 1900 7123 3091 4119 3017 2096 670 1814 2538 4857 3887 2292 1236 42284 15737
internal_count=82872 64078 6288 18794 14675 13818 11280 9466 57790 55424 48301 6017 1482 4535 2467 1900 7123 3091 4119 3017 2096 670 1814 2538 4857 3887 2292 1236 42284 15737
is_linear=0
shrinkage=0.1


Tree=7
num_leaves=31
num_cat=0
split_feature=7 8 5 8 8 8 8 7 8 5 8 8 8 16 5 5 4 8 5 8 4 8 5 5 8 8 5 5 5 3
split_gain=124870 62851.7 53819.6 26083.9 18642.3 22269.9 38378.9 18566.9 49249.5 14551.4 13899.5 16984.6 46056.6 40800.8 22651.2 16207.1 17547.1 14419.7 40377.8 12892.7 16457.1 11235.6 14536.8 14347.3 11044.5 19909.7 13996 10626.3 27232.6 9955.53
threshold=0.77884615384615397 0.93750000000000011 0.22602739726027402 0.18750000000000003 0.93750000000000011 0.81250000000000011 0.68750000000000011 0.91346153846153866 0.56250000000000011 0.020547945205479454 1.0000000180025095e-35 0.81250000000000011 0.68750000000000011 1.0000000180025095e-35 0.25342465753424664 0.07808219178082193 0.75000000000000011 0.31250000000000006 0.28082191780821925 0.43750000000000006 1.0000000180025095e-35 0.56250000000000011 0.88630136986301389 0.91917808219178088 0.43750000000000006 0.56250000000000011 0.24794520547945212 0.48356164383561651 0.54383561643835632 0.40909090909090912
decision_type=2 2 2 2 2 2 2 2 2 2 2 2 2 2 2 2 2 2 2 2 2 2 2 2 2 2 2 2 2 2
left_child=1 9 -3 -2 5 6 7 21 19 -1 15 12 17 27 -15 16 -11 18 -12 20 -9 22 -5 -23 -19 26 -26 -14 -29 -13
right_child=3 2 -4 4 -6 -7 -8 8 -10 10 11 29 13 14 -16 -17 -18 24 -20 -21 -22 23 -24 -25 25 -27 -28 28 -30 -31
leaf_value=0.16670699125039626 0.44902390378263823 0.76224245681891512 0.071807665313697464 0.21283007485520133 0.61681999033143098 -0.13146234841105786 0.6177552239413866 0.23402494234049503 0.82159800141764228 0.54899137726068381 0.18946235702683234 -0.3413609158342672 -0.12227875166678262 -0.099250386939384039 0.85089955178847654 -0.29760814384781475 -0.32906236091292052 -0.26142254515816732 -0.16136245798453885 0.32452666504024202 -0.27472545866911108 -0.38546117672572705 -0.24004893592256515 1.1660899941883389 -0.18772330054756731 -0.22696186671233659 0.10853900636592487 1.0113429515159618 0.049871235495889975 -0.10510292220292106
leaf_weight=1988 4119 1475 4813 2115 857 2538 1814 1124 1148 504 5255 3842 2116 320 1162 6180 415 7161 8732 1382 1464 1104 1066 63 2403 7176 4740 342 2125 3329
leaf_count=1988 4119 1475 4813 2115 857 2538 1814 1124 1148 504 5255 3842 2116 320 1162 6180 415 7161 8732 1382 1464 1104 1066 63 2403 7176 4740 342 2125 3329
internal_value=0 -0.0664783 0.233766 0.226657 0.164243 0.136174 0.196392 0.115645 0.244732 -0.0991471 -0.108618 -0.0895641 -0.0650256 0.189629 0.645739 -0.239342 0.152482 -0.108573 -0.0295555 0.0779199 -0.0537689 -0.0363022 0.0610636 -0.301701 -0.160026 -0.109316 0.00887243 0.042137 0.18316 -0.231683
internal_weight=0 64078 6288 18794 14675 13818 11280 9466 5118 57790 55802 48703 41532 6065 1482 7099 919 35467 13987 3970 2588 4348 3181 1167 21480 14319 7143 4583 2467 7171
internal_count=82872 64078 6288 18794 14675 13818 11280 9466 5118 57790 55802 48703 41532 6065 1482 7099 919 35467 13987 3970 2588 4348 3181 1167 21480 14319 7143 4583 2467 7171
is_linear=0
shrinkage=0.1


Tree=8
num_leaves=31
num_cat=0
split_feature=7 8 5 8 5 5 8 8 5 5 8 8 5 8 7 8 4 5 4 5 5 5 5 8 5 8 8 8 4 5
split_gain=102376 52251.6 43299.3 19564.3 15407.4 15523.2 18740.5 29126.3 54982.5 15421.5 31253.7 15085.3 14146.5 13868.6 12937.3 30301 13330.2 10227 22312.6 9582.8 18505.6 9779.26 12640.8 9498.68 11402.2 9321.65 8929.49 9123.81 8568.67 19231.8
threshold=0.75961538461538469 0.93750000000000011 0.22602739726027402 0.18750000000000003 0.60410958904109602 0.47808219178082201 0.81250000000000011 0.68750000000000011 0.25342465753424664 0.28082191780821925 0.31250000000000006 0.68750000000000011 0.54383561643835632 1.0000000180025095e-35 0.91346153846153866 0.43750000000000006 1.0000000180025095e-35 0.07808219178082193 0.75000000000000011 0.67808219178082207 0.48356164383561651 0.36301369863013705 0.28082191780821925 0.43750000000000006 0.012328767123287674 0.31250000000000006 0.81250000000000011 0.93750000000000011 1.0000000180025095e-35 0.96027397260273994
decision_type=2 2 2 2 2 2 2 2 2 2 2 2 2 2 2 2 2 2 2 2 2 2 2 2 2 2 2 2 2 2
left_child=1 4 -3 28 5 6 7 9 -9 10 13 -7 -13 17 -5 16 -16 18 -1 20 21 22 -4 -12 -25 -18 -17 -28 -2 -30
right_child=3 2 19 14 -6 11 -8 8 -10 -11 23 12 -14 -15 15 26 25 -19 -20 -21 -22 -23 -24 24 -26 -27 27 -29 29 -31
leaf_value=0.55278122739341018 0.65308831316640403 0.68601822032615301 -0.25354758928297089 0.051811807780507285 -0.19451177027603855 -0.017820896942970715 -0.28125886508425835 -0.058405134974161554 0.76580958327922888 -0.19925206851120089 -0.32387602115119418 0.5858266918109386 0.047194590733852237 0.18097978532778167 0.21062244685346865 0.46044340772182929 0.008552203511360032 -0.23796092625381529 -0.31711889458470355 -0.24125393137335777 0.39211155911643342 -0.27484111919539195 0.41044792517871875 0.58300861480549493 -0.13223781307782975 -0.49616301245485356 0.057065539144170591 0.56123636353156658 0.42425644028510412 -0.17150116724754449
leaf_weight=624 921 1475 480 7771 11864 6340 4680 2667 1162 10342 2950 918 1040 5702 1124 3555 722 1772 559 840 1595 1056 712 232 5672 742 1365 487 2833 670
leaf_count=624 921 1475 480 7771 11864 6340 4680 2667 1162 10342 2950 918 1040 5702 1124 3555 722 1772 559 840 1595 1056 712 232 5672 742 1365 487 2833 670
internal_value=0 -0.0630802 0.213534 0.195839 -0.0932159 -0.0663065 -0.0944705 -0.0668785 0.191722 -0.102429 -0.0452449 0.0571086 0.29973 0.0898632 0.143694 0.233002 -0.0483921 -0.0859563 0.14173 0.0647167 0.131596 -0.0532456 0.143067 -0.177347 -0.104132 -0.247253 0.367689 0.189642 0.38167 0.310309
internal_weight=0 62682 6158 20190 56524 44660 36362 31682 3829 27853 17511 8298 1958 8657 15766 7995 2588 2955 1183 4683 3843 2248 1192 8854 5904 1464 5407 1852 4424 3503
internal_count=82872 62682 6158 20190 56524 44660 36362 31682 3829 27853 17511 8298 1958 8657 15766 7995 2588 2955 1183 4683 3843 2248 1192 8854 5904 1464 5407 1852 4424 3503
is_linear=0
shrinkage=0.1


Tree=9
num_leaves=31
num_cat=0
split_feature=7 8 5 8 5 5 8 8 5 8 5 8 8 8 8 7 8 8 5 6 5 5 5 4 7 5 5 5 5 6
split_gain=82924.9 42323.8 35222.1 15847.1 12535.3 11699.7 15179.8 23592.3 44738.1 14567.4 12491.4 25315.5 11498.5 17200.5 29941 12811.8 27596 11233.5 10405.3 9724.69 8945.96 8292.29 8283.91 18073.2 8162.37 7879 14595.6 8335.52 9221.8 7853.71
threshold=0.75961538461538469 0.93750000000000011 0.22054794520547949 0.18750000000000003 0.60958904109589052 0.47808219178082201 0.81250000000000011 0.68750000000000011 0.24794520547945212 0.68750000000000011 0.28082191780821925 0.31250000000000006 0.93750000000000011 0.81250000000000011 0.68750000000000011 0.93269230769230782 0.56250000000000011 1.0000000180025095e-35 0.54383561643835632 0.48333333333333339 0.91643835616438374 0.78767123287671248 0.07808219178082193 0.75000000000000011 0.91346153846153866 0.67808219178082207 0.48356164383561651 0.36301369863013705 0.27534246575342475 0.55000000000000016
decision_type=2 2 2 2 2 2 2 2 2 2 2 2 2 2 2 2 2 2 2 2 2 2 2 2 2 2 2 2 2 2
left_child=1 4 -3 -2 5 6 7 10 -9 29 11 17 13 14 15 -5 -17 22 -11 -14 21 -16 23 -1 -15 26 27 28 -4 -7
right_child=3 2 25 12 -6 9 -8 8 -10 18 -12 -13 19 24 20 16 -18 -19 -20 -21 -22 -23 -24 -25 -26 -27 -28 -29 -30 -31
leaf_value=0.49750310988508711 0.34350278072115892 0.62685190960784409 -0.20991331797656643 -0.003679877055442446 -0.17717643466288813 -0.11632935685696968 -0.25313298077157437 -0.057825516743717754 0.67972272710257953 0.52724402163914263 -0.17932685798638912 -0.15961217965800745 0.17999427622228609 -0.29614100154973372 0.15696441491444907 0.086242540754131652 0.71114174293620247 0.16288181451571992 0.07453645913505888 0.81193221431455709 0.31086595853722337 0.88925791672434673 -0.21416482987159835 -0.28540700535441554 0.051358979770388363 -0.21712853934754439 0.35290039923193878 -0.247357008549002 0.35140175487414177 0.10611266228472907
leaf_weight=624 4424 1431 476 6034 11480 3994 4680 2633 1196 918 10342 8854 550 1339 195 3163 910 5702 1136 437 1026 747 1772 559 1365 840 1595 1056 760 2634
leaf_count=624 4424 1431 476 6034 11480 3994 4680 2633 1196 918 10342 8854 550 1339 195 3163 910 5702 1136 437 1026 747 1772 559 1365 840 1595 1056 760 2634
internal_value=0 -0.0567721 0.192181 0.176255 -0.0838943 -0.0601203 -0.0850234 -0.0601906 0.17255 0.0441793 -0.0921859 -0.0407204 0.129325 0.107255 0.158307 0.0888216 0.225859 0.0808769 0.276866 0.459788 0.515159 0.737668 -0.0773606 0.127557 -0.12072 0.0605936 0.120611 -0.0410394 0.135232 -0.0279298
internal_weight=0 62682 6158 20190 56524 45044 36362 31682 3829 8682 27853 17511 15766 14779 12075 10107 4073 8657 2054 987 1968 942 2955 1183 2704 4727 3887 2292 1236 6628
internal_count=82872 62682 6158 20190 56524 45044 36362 31682 3829 8682 27853 17511 15766 14779 12075 10107 4073 8657 2054 987 1968 942 2955 1183 2704 4727 3887 2292 1236 6628
is_linear=0
shrinkage=0.1


Tree=10
num_leaves=31
num_cat=0
split_feature=7 8 5 8 5 8 8 8 5 5 5 8 8 8 7 8 8 5 5 5 4 8 6 8 4 7 8 5 5 5
split_gain=67169.2 34282.3 28639.7 12836.2 10975.8 10098.3 10257.2 25459.9 24293.2 34339.6 16656.1 9313.78 13932.4 24252.2 10809.6 30646.3 9280.93 11682.6 11357.8 9259.97 8510.35 8486.39 7877 7549.17 10775.1 8046.73 7979.51 7246.23 7081.66 11118.5
threshold=0.75961538461538469 0.93750000000000011 0.22602739726027402 0.18750000000000003 0.023287671232876717 1.0000000180025095e-35 0.81250000000000011 0.68750000000000011 0.24794520547945212 0.57123287671232881 0.76575342465753438 0.93750000000000011 0.81250000000000011 0.68750000000000011 0.91346153846153866 0.56250000000000011 0.56250000000000011 0.88356164383561653 0.91643835616438374 0.07808219178082193 0.75000000000000011 0.56250000000000011 0.48333333333333339 0.43750000000000006 1.0000000180025095e-35 0.99038461538461553 0.31250000000000006 0.91643835616438374 0.78767123287671248 0.89178082191780839
decision_type=2 2 2 2 2 2 2 2 2 2 2 2 2 2 2 2 2 2 2 2 2 2 2 2 2 2 2 2 2 2
left_child=1 4 -3 28 -1 19 7 21 -9 -10 -11 12 13 14 16 23 17 -5 -18 20 -6 -7 -13 24 -16 26 -26 -15 -2 -30
right_child=3 2 -4 11 5 6 -8 8 9 10 -12 22 -14 27 15 -17 18 -19 -20 -21 -22 -23 -24 -25 25 -27 -28 -29 29 -31
leaf_value=0.13532173952177506 -0.078440995678358105 0.55722732133936081 0.051931552159935661 0.17781284363086738 0.38896747496760026 -0.056700246612728801 -0.18037281956182827 -0.10486389019032186 0.6215971137326245 -0.055908586279498976 1.8330368757247926 0.16199484486880036 -0.10864829863972698 0.66390162923485996 0.18255999260673172 0.63709916709760006 -0.32746701331466865 -0.20840489200102175 0.8542704028644782 -0.24203077925320582 -0.23948691023127811 -0.18031093669555906 0.73073898574307528 0.2391622002173199 -0.056350591058923344 0.54500680908681909 -0.54422018769961689 0.27977937412617065 0.60404000638844491 0.24078475419242223
leaf_weight=2366 426 1475 4683 2517 480 27495 6957 2353 1764 1698 48 550 2704 942 1124 1148 1248 1137 87 6012 391 6960 437 1382 671 123 670 1026 1207 2791
leaf_count=2366 426 1475 4683 2517 480 27495 6957 2353 1764 1698 48 550 2704 942 1124 1148 1248 1137 87 6012 391 6960 437 1382 671 123 670 1026 1207 2791
internal_value=0 -0.0510949 0.172963 0.15863 -0.0755049 -0.0847153 -0.0682387 -0.0488896 0.14375 0.310413 -0.00397881 0.116392 0.0965297 0.142476 0.0799394 0.182045 -0.0248063 0.0576351 -0.250455 -0.197882 0.106848 -0.0816699 0.41381 0.0504576 -0.0503112 -0.2291 -0.300103 0.463643 0.309153 0.350452
internal_weight=0 62682 6158 20190 56524 54158 47275 40318 5863 3510 1746 15766 14779 12075 10107 5118 4989 3654 1335 6883 871 34455 987 3970 2588 1464 1341 1968 4424 3998
internal_count=82872 62682 6158 20190 56524 54158 47275 40318 5863 3510 1746 15766 14779 12075 10107 5118 4989 3654 1335 6883 871 34455 987 3970 2588 1464 1341 1968 4424 3998
is_linear=0
shrinkage=0.1


Tree=11
num_leaves=31
num_cat=0
split_feature=7 8 5 8 8 7 5 4 5 5 7 5 5 8 8 5 8 5 8 8 8 8 4 8 8 5 5 5 4 7
split_gain=54407 27768.7 23200.4 10664.5 15894.6 19719.3 11006.4 9625.91 19106.7 14971.5 12724.4 9500.62 9465.06 10866 15719.6 29115.8 10384 9451.96 20237.1 9297.93 30141.2 11000.3 8995.64 8595.13 8131.47 8926.25 8003.13 7059.33 11394.1 7059.16
threshold=0.75961538461538469 0.93750000000000011 0.22054794520547949 0.31250000000000006 0.43750000000000006 0.89423076923076927 0.88356164383561653 1.0000000180025095e-35 0.89452054794520552 0.78767123287671248 0.99038461538461553 0.60958904109589052 0.47808219178082201 0.81250000000000011 0.68750000000000011 0.25342465753424664 0.68750000000000011 0.28082191780821925 0.31250000000000006 0.68750000000000011 0.81250000000000011 0.93750000000000011 1.0000000180025095e-35 1.0000000180025095e-35 0.43750000000000006 0.0095890410958904132 0.54383561643835632 0.07808219178082193 0.75000000000000011 0.43269230769230776
decision_type=2 2 2 2 2 2 2 2 2 2 2 2 2 2 2 2 2 2 2 2 2 2 2 2 2 2 2 2 2 2
left_child=1 11 27 7 6 19 -5 -2 9 10 -9 12 13 14 17 -16 -14 18 23 -6 -21 -22 -8 -1 -20 -26 -18 28 -3 -17
right_child=3 2 -4 4 5 -7 22 8 -10 -11 -12 -13 16 -15 15 29 26 -19 24 20 21 -23 -24 -25 25 -27 -28 -29 -30 -31
leaf_value=-0.059689095451964574 0.47973909101897272 0.041171706872173572 0.048870708017475256 0.13266473067399304 -0.15013752536563707 0.26270308657419678 0.0038427026342537449 -0.27033076943682927 0.00090467588388794837 0.52340734396434474 0.80160832887279332 -0.14916393753560583 -0.01432643690457462 -0.21188703382143548 -0.040683693572111296 0.63959513759045372 0.46259223269876948 -0.1505645736547096 -0.27186853120184773 0.61650247948406189 -0.27840950579733115 0.37277338415406669 -0.47395952905519895 0.15045524168501642 0.73221074333414438 -0.087433898518165604 0.065565627438883611 0.7578239593084013 0.84052398674550111 -0.19557674606995923
leaf_weight=2955 1396 529 4727 1011 2344 6178 649 503 2733 1896 142 11480 6628 4680 2667 1050 918 10342 2950 828 1174 333 1003 5702 136 5768 1136 633 269 112
leaf_count=2955 1396 529 4727 1011 2344 6178 649 503 2733 1896 142 11480 6628 4680 2667 1050 918 10342 2950 828 1174 333 1003 5702 136 5768 1136 633 269 112
internal_value=0 -0.0459854 0.155667 0.142767 0.0917188 0.145418 -0.127211 0.24624 0.184434 0.381831 -0.034338 -0.0679544 -0.0472572 -0.0696562 -0.0486462 0.141334 0.0465545 -0.074763 -0.0299946 -0.00944166 0.131797 -0.134518 -0.286252 0.0787241 -0.136294 -0.0685532 0.24301 0.508444 0.310628 0.559097
internal_weight=0 62682 6158 20190 13520 10857 2663 6670 5274 2541 645 56524 45044 36362 31682 3829 8682 27853 17511 4679 2335 1507 1652 8657 8854 5904 2054 1431 798 1162
internal_count=82872 62682 6158 20190 13520 10857 2663 6670 5274 2541 645 56524 45044 36362 31682 3829 8682 27853 17511 4679 2335 1507 1652 8657 8854 5904 2054 1431 798 1162
is_linear=0
shrinkage=0.1


Tree=12
num_leaves=31
num_cat=0
split_feature=5 8 5 5 8 8 8 8 4 8 5 8 5 4 8 8 5 5 5 4 5 8 8 8 5 5 8 8 8 5
split_gain=44089.2 21291 20121.7 13502.4 11635.3 8957.26 11221.6 18535.5 8792.46 9255.4 8697.63 8134.77 8270.34 8122.03 7503.06 16736.1 16244.1 23575.4 7281.81 10438.2 8332.55 14994.1 8276.15 7124.8 6999.14 12210.2 6491.64 7756.74 12870.9 18512.8
threshold=0.78767123287671248 0.93750000000000011 0.22602739726027402 0.017808219178082198 0.18750000000000003 0.93750000000000011 0.81250000000000011 0.68750000000000011 0.75000000000000011 0.43750000000000006 0.91643835616438374 1.0000000180025095e-35 0.07808219178082193 0.75000000000000011 0.81250000000000011 0.68750000000000011 0.24794520547945212 0.57123287671232881 0.88630136986301389 1.0000000180025095e-35 0.96027397260273994 1.0000000180025095e-35 1.0000000180025095e-35 0.18750000000000003 0.67808219178082207 0.48356164383561651 0.56250000000000011 0.43750000000000006 0.31250000000000006 0.28082191780821925
decision_type=2 2 2 2 2 2 2 2 2 2 2 2 2 2 2 2 2 2 2 2 2 2 2 2 2 2 2 2 2 2
left_child=1 3 -3 8 18 6 7 -6 23 -10 -9 12 13 -5 15 26 -17 -18 22 -20 -21 -22 -2 -1 25 -4 27 28 29 -13
right_child=4 2 24 11 5 -7 -8 10 9 -11 -12 14 -14 -15 -16 16 17 -19 19 20 21 -23 -24 -25 -26 -27 -28 -29 -30 -31
leaf_value=0.86020398108366258 0.35548686666168605 0.45433832225179799 -0.054227865876872727 0.36834824432345076 0.061443040242875974 0.4126974982445959 -0.11766454427036444 0.67409147893887766 -0.26348941960069039 0.27594411216151027 0.22553112816249821 0.13024025364386424 -0.21057675367443685 -0.21374986383656638 -0.14760294658254547 -0.082523473460081223 0.51285530816575686 0.0028973455429476646 0.4813767990899292 0.22194029762176798 -0.68735186282746097 0.25878702568865958 1.0011674428170967 0.24670211099222406 -0.20607120607755261 0.30753014682181951 -0.14805578037625089 0.048492299450006049 -0.1809973533219513 -0.10635021325348354
leaf_weight=240 861 1508 2248 528 9213 835 2465 747 667 608 1026 5341 6132 439 7172 2449 1764 1865 921 1288 334 336 258 896 959 1595 7176 7149 7166 8686
leaf_count=240 861 1508 2248 528 9213 835 2465 747 667 608 1026 5341 6132 439 7172 2449 1764 1865 921 1288 334 336 258 896 959 1595 7176 7149 7166 8686
internal_value=0 -0.0388081 0.135678 -0.0577003 0.137089 0.0948884 0.0751597 0.118425 0.174003 -0.00625366 0.414518 -0.0676997 -0.167714 0.104087 -0.0531409 -0.0368537 0.116482 0.25078 0.287884 0.203746 0.0731543 -0.21287 0.504357 0.376315 0.0356068 0.0959163 -0.0630933 -0.0415814 -0.0719658 -0.0162647
internal_weight=0 64588 6310 58278 18284 14286 13451 10986 2411 1275 1773 55867 7099 967 48768 41596 6078 3629 3998 2879 1958 670 1119 1136 4802 3843 35518 28342 21193 14027
internal_count=82872 64588 6310 58278 18284 14286 13451 10986 2411 1275 1773 55867 7099 967 48768 41596 6078 3629 3998 2879 1958 670 1119 1136 4802 3843 35518 28342 21193 14027
is_linear=0
shrinkage=0.1


Tree=13
num_leaves=31
num_cat=0
split_feature=7 8 5 8 8 7 5 4 5 4 5 5 7 8 0 6 6 8 8 5 5 5 5 8 8 8 5 4 8 5
split_gain=35817 18222.5 15266.6 7473.63 12296.1 16642.6 9062.42 7286.47 7007.91 6745 13820.7 10581.9 8637.45 6270.07 6182.46 11209.6 7412.23 6043.17 13957.9 14197.6 18137.6 13558.8 5891.61 5772.15 19419 8459.35 5629.29 5547.53 5332.42 6884.66
threshold=0.75961538461538469 0.93750000000000011 0.22602739726027402 0.31250000000000006 0.43750000000000006 0.91346153846153866 0.88356164383561653 1.0000000180025095e-35 0.023287671232876717 1.0000000180025095e-35 0.89452054794520552 0.78767123287671248 0.99038461538461553 1.0000000180025095e-35 0.5434782608695653 0.48333333333333339 0.51666666666666672 0.81250000000000011 0.68750000000000011 0.24794520547945212 0.57123287671232881 0.76575342465753438 0.07808219178082193 0.68750000000000011 0.81250000000000011 0.93750000000000011 0.91917808219178088 0.75000000000000011 0.56250000000000011 0.54931506849315082
decision_type=2 2 2 2 2 2 2 2 2 2 2 2 2 2 2 2 2 2 2 2 2 2 2 2 2 2 2 2 2 2
left_child=1 8 -3 9 6 23 -5 -8 -1 -2 11 12 -11 22 16 -16 -7 18 28 -20 -21 -22 27 26 -25 -26 -6 -10 -15 -30
right_child=3 2 -4 4 5 14 7 -9 13 10 -12 -13 -14 17 15 -17 -18 -19 19 20 21 -23 -24 24 25 -27 -28 -29 29 -31
leaf_value=0.11335432207104 0.39791608243296062 0.40659729629401431 0.037676512826672719 0.11635493673273647 -0.14121583842487687 0.01242014522745186 -0.0026858614214505133 -0.4327078721845376 0.3192048118286766 -0.22570877613066501 -0.0053704503071837729 0.4376307206338037 0.65746132853165484 -0.039110645457664878 0.62131765488023272 0.17552863570766164 0.32253024868107544 -0.13555477070934729 -0.082056774907193084 0.46156977864854509 -0.039927491089093277 1.6643597548206648 -0.1868548794785011 0.4667467278905395 -0.2224565315193513 0.25958464908264578 0.52860440892364946 -0.18819432176954454 -0.074670124956557379 -0.29555340135170799
leaf_weight=2366 1396 1475 4683 1011 2536 1703 649 1003 480 503 2733 1896 142 27495 997 1299 1408 6957 2353 1764 1698 48 6012 943 1339 500 132 391 4993 1967
leaf_count=2366 1396 1475 4683 1011 2536 1703 649 1003 480 503 2733 1896 142 27495 997 1299 1408 6957 2353 1764 1698 48 6012 943 1339 500 132 391 4993 1967
internal_value=0 -0.0373111 0.126043 0.115836 0.0731023 0.120333 -0.119457 -0.263771 -0.0551076 0.202457 0.15072 0.318605 -0.0312744 -0.0624672 0.244635 0.369105 0.152772 -0.0494841 -0.0346323 0.108003 0.235414 0.00692577 -0.15164 -0.00298759 0.0977948 -0.0913959 -0.108076 0.0914286 -0.0589037 -0.137095
internal_weight=0 62682 6158 20190 13520 10857 2663 1652 56524 6670 5274 2541 645 54158 5407 2296 3111 47275 40318 5863 3510 1746 6883 5450 2782 1839 2668 871 34455 6960
internal_count=82872 62682 6158 20190 13520 10857 2663 1652 56524 6670 5274 2541 645 54158 5407 2296 3111 47275 40318 5863 3510 1746 6883 5450 2782 1839 2668 871 34455 6960
is_linear=0
shrinkage=0.1


Tree=14
num_leaves=31
num_cat=0
split_feature=5 8 5 5 8 4 8 8 8 8 5 5 5 5 5 7 4 5 8 8 5 8 5 5 8 8 3 8 5 4
split_gain=29110.4 13770.1 13427.1 9004.4 8114.93 6647.83 7272.82 6478.68 8036.12 12348.3 6151.41 9692.54 6560.1 7943.16 5772.8 5654.85 8948.54 5515.53 24803.5 10029.8 6731.39 5625.61 5495.72 5584.21 5472.55 5411.25 5490.05 5095.15 8533.1 12488.6
threshold=0.78493150684931512 0.93750000000000011 0.22054794520547949 0.017808219178082198 0.18750000000000003 0.75000000000000011 0.56250000000000011 0.93750000000000011 0.81250000000000011 0.68750000000000011 0.67808219178082207 0.48356164383561651 0.36301369863013705 0.28082191780821925 0.91643835616438374 0.067307692307692332 0.75000000000000011 0.91917808219178088 0.56250000000000011 0.56250000000000011 0.88630136986301389 0.31250000000000006 0.58767123287671252 0.59315068493150702 0.18750000000000003 1.0000000180025095e-35 1.0000000180025095e-35 1.0000000180025095e-35 0.96301369863013708 1.0000000180025095e-35
decision_type=2 2 2 2 2 2 2 2 2 2 2 2 2 2 2 2 2 2 2 2 2 2 2 2 2 2 2 2 2 2
left_child=1 3 15 5 27 24 -7 8 9 17 11 12 13 -4 -11 16 -3 19 -19 20 21 -6 -13 -24 -1 26 -5 28 -2 -30
right_child=4 2 10 25 7 6 -8 -9 -10 14 -12 22 -14 -15 -16 -17 -18 18 -20 -21 -22 -23 23 -25 -26 -27 -28 -29 29 -31
leaf_value=0.74221742594769857 0.25636054888600485 -0.034499687679761325 -0.18714177183920647 0.078476926438690447 0.41109654255794015 -0.18819718659326112 0.31391911573577125 0.34202591150652811 -0.10370615501916161 0.54212173737900027 -0.20184735117169716 0.45551646325895717 -0.23104639434170693 0.32583787631416133 0.17985588584429282 0.59399890381327036 0.67037802609480002 -0.00058016910353187302 0.53178293084555583 -0.28300791566300154 -0.18076783421450457 0.05515270170766641 -0.96084292531013493 0.15237324462147586 0.2045367061441149 -0.043284986159255877 -0.17292019440831494 0.38485235174676541 0.25956483581352846 -0.61978084772729414
leaf_weight=240 1936 545 524 1014 601 834 441 858 2489 770 936 811 1056 712 1026 650 269 3846 1133 1176 853 1700 48 736 896 48601 6061 1463 336 311
leaf_count=240 1936 545 524 1014 601 834 441 858 2489 770 936 811 1056 712 1026 650 269 3846 1133 1176 853 1700 48 736 896 48601 6061 1463 336 311
internal_value=0 -0.0317707 0.108812 -0.0469866 0.110564 0.142214 -0.014524 0.0755186 0.0586977 0.0950978 0.0282957 0.0837148 -0.0480151 0.108361 0.33517 0.374063 0.198439 0.0487802 0.120562 -0.0337607 0.0591736 0.148122 0.273009 0.0842172 0.318131 -0.0551797 -0.13689 0.235743 0.151288 -0.163119
internal_weight=0 64374 6287 58087 18498 2411 1275 14452 13594 11105 4823 3887 2292 1236 1796 1464 814 9309 4979 4330 3154 2301 1595 784 1136 55676 7075 4046 2583 647
internal_count=82872 64374 6287 58087 18498 2411 1275 14452 13594 11105 4823 3887 2292 1236 1796 1464 814 9309 4979 4330 3154 2301 1595 784 1136 55676 7075 4046 2583 647
is_linear=0
shrinkage=0.1


Tree=15
num_leaves=31
num_cat=0
split_feature=5 8 5 5 8 5 4 8 5 5 8 8 8 4 4 8 5 5 8 6 6 8 8 0 5 7 5 5 5 5
split_gain=23618.4 11211.2 10902.4 7383.44 6604.94 9129.43 10923 8111.48 12805.1 8588.45 6841.4 18282.9 10339.6 5750.93 4895.86 7365.79 4827.77 10544.4 11179.7 13248.2 8599.75 5741.84 15158 4774.22 4681.57 8089.15 4941.52 7167.9 4659.83 4523.21
threshold=0.78767123287671248 0.93750000000000011 0.22602739726027402 0.012328767123287674 0.31250000000000006 0.88630136986301389 1.0000000180025095e-35 0.43750000000000006 0.91917808219178088 0.88356164383561653 0.68750000000000011 0.81250000000000011 0.93750000000000011 1.0000000180025095e-35 0.75000000000000011 0.43750000000000006 0.60410958904109602 0.52739726027397282 0.31250000000000006 0.58333333333333337 0.18333333333333338 0.43750000000000006 0.56250000000000011 0.58695652173913049 0.67808219178082207 0.4711538461538462 0.36301369863013705 0.27534246575342475 0.58767123287671252 0.59315068493150702
decision_type=2 2 2 2 2 2 2 2 2 2 2 2 2 2 2 2 2 2 2 2 2 2 2 2 2 2 2 2 2 2
left_child=1 3 -3 14 5 -2 -7 9 10 -6 -9 -12 -13 -11 -1 -16 17 -5 19 20 -19 -18 -23 -17 25 26 27 -4 -27 -30
right_child=4 2 24 16 7 6 -8 8 -10 13 11 12 -14 -15 15 23 21 18 -20 -21 -22 22 -24 -25 -26 28 -28 -29 29 -31
leaf_value=0.35077612877042463 0.38273372269250105 0.3327732017532315 -0.23164285444999458 -0.050085169712910549 0.16989723004753451 0.33926702864150543 -0.000566486527087809 -0.14621721987738642 0.20374168364469303 -0.0023592587833784992 0.49693527814059513 -0.24541161328813305 0.40614249148861203 -0.38439244533464656 -0.2620238938500648 0.068354525758461515 -0.16893490112347304 0.44256706785464328 -0.0049871618634163657 0.63902815067688001 -0.1502142658177984 0.23109137087938955 -0.1241529042893592 0.77909406719522345 -0.17310499223734557 0.4202468132673558 -0.20170302213652544 0.27849257258600313 -0.86475863456726076 0.13713592656169329
leaf_weight=768 1696 1508 432 38766 771 1396 2933 2297 5318 649 762 1150 309 1003 477 275 6427 399 3280 715 633 1603 4791 144 959 787 1080 760 48 736
leaf_count=768 1696 1508 432 38766 771 1396 2933 2297 5318 649 762 1150 309 1003 477 275 6427 399 3280 715 633 1603 4791 144 959 787 1080 760 48 736
internal_value=0 -0.0284041 0.098212 -0.0421133 0.100337 0.18607 0.109022 0.0582014 0.0985743 -0.10569 -0.0252151 0.0999277 -0.10742 -0.234308 0.165503 0.00669826 -0.0482156 -0.0324151 0.103848 0.308188 0.0789715 -0.102186 -0.0350918 0.312618 0.0245513 0.0738754 -0.046767 0.0936113 0.24835 0.0757954
internal_weight=0 64588 6310 58278 18284 6025 4329 12259 9836 2423 4518 2221 1459 1652 1664 896 56614 43793 5027 1747 1032 12821 6394 419 4802 3843 2272 1192 1571 784
internal_count=82872 64588 6310 58278 18284 6025 4329 12259 9836 2423 4518 2221 1459 1652 1664 896 56614 43793 5027 1747 1032 12821 6394 419 4802 3843 2272 1192 1571 784
is_linear=0
shrinkage=0.1


Tree=16
num_leaves=31
num_cat=0
split_feature=5 8 5 5 8 4 8 8 8 5 4 5 4 8 5 8 8 5 5 8 8 8 7 4 5 5 5 5 5 5
split_gain=19167.6 9021.64 8873 6290.94 5641.4 4618.9 6038.69 4625.9 4561.85 6698.91 9265.69 5504.31 7965.25 4495.32 4656.74 4620.26 11090.4 11093.7 15128.3 4441.89 5904.64 7856.17 4204.47 7248.31 4164.25 4010.8 6556.17 4143.34 5806 4003.11
threshold=0.78493150684931512 0.93750000000000011 0.22602739726027402 0.020547945205479454 0.18750000000000003 0.75000000000000011 0.18750000000000003 0.56250000000000011 1.0000000180025095e-35 0.96301369863013708 1.0000000180025095e-35 0.88630136986301389 1.0000000180025095e-35 1.0000000180025095e-35 0.24794520547945212 0.81250000000000011 0.68750000000000011 0.24794520547945212 0.54931506849315082 0.93750000000000011 0.81250000000000011 0.68750000000000011 0.067307692307692332 0.75000000000000011 0.20410958904109591 0.67808219178082207 0.48356164383561651 0.36301369863013705 0.27534246575342475 0.96027397260273994
decision_type=2 2 2 2 2 2 2 2 2 2 2 2 2 2 2 2 2 2 2 2 2 2 2 2 2 2 2 2 2 2
left_child=1 3 22 5 8 6 -1 -7 9 -2 -11 -10 -13 14 24 16 -15 -18 -19 20 21 -6 23 -3 -5 26 27 28 -4 -21
right_child=4 2 25 13 19 7 -8 -9 11 10 -12 12 -14 15 -16 -17 17 18 -20 29 -22 -23 -24 -25 -26 -27 -28 -29 -30 -31
leaf_value=0.65376461165506305 0.20727301342917936 -0.064327042875170645 -0.2084785733020571 -0.064606648984568027 0.040825878782125617 -0.14373258517616877 0.13249124561777847 0.22864234854011536 0.73212311890055526 0.19968165199582777 -0.55774613860335764 0.80705634582333452 0.12137403741562891 -0.043206516411698523 -0.17889451197597075 -0.10910444568360603 -0.062725867601260865 0.44716926016608433 0.034233965630513466 0.18783330673101986 -0.092641173801828278 0.26925950886273053 0.48033300331801776 0.5700629042759261 0.29503500336348315 -0.16435211899344071 0.22155072255661495 -0.18777145051704297 0.25064331120250771 0.78104038684456434
leaf_weight=283 1936 545 432 2020 9309 954 1035 513 282 336 311 205 976 35168 4624 7100 2401 1576 2030 723 2489 1796 694 269 383 936 1595 1056 760 135
leaf_count=283 1936 545 432 2020 9309 954 1035 513 282 336 311 205 976 35168 4624 7100 2401 1576 2030 723 2489 1796 694 269 383 936 1595 1056 760 135
internal_value=0 -0.0257803 0.08801 -0.0380963 0.0897167 0.108552 0.244419 -0.0135156 0.194088 0.114175 -0.164399 0.335179 0.240396 -0.0454814 -0.12021 -0.0346038 -0.0217573 0.103817 0.214707 0.0604967 0.0465687 0.0777702 0.299496 0.145318 -0.00728549 0.0212763 0.0664879 -0.0435322 0.0842501 0.28117
internal_weight=0 64374 6287 58087 18498 2785 1318 1467 4046 2583 647 1463 1181 55302 7027 48275 41175 6007 3606 14452 13594 11105 1508 814 2403 4779 3843 2248 1192 858
internal_count=82872 64374 6287 58087 18498 2785 1318 1467 4046 2583 647 1463 1181 55302 7027 48275 41175 6007 3606 14452 13594 11105 1508 814 2403 4779 3843 2248 1192 858
is_linear=0
shrinkage=0.1


Tree=17
num_leaves=31
num_cat=0
split_feature=5 8 5 5 8 5 4 8 5 5 4 8 0 6 8 6 5 6 1 8 8 5 0 5 4 8 5 4 8 8
split_gain=15550.9 7361.78 7205.59 5188.18 4660.13 6660.69 7757.31 6369.22 10394.7 6956.65 4658.25 4588.36 4070.63 9658.75 5486.68 5300.07 6124.45 4902.64 4675.08 4062.02 12330.5 4300.18 3787.21 3784.96 6181.52 3626.15 3850.12 4530.66 3400.9 8969.16
threshold=0.78767123287671248 0.93750000000000011 0.22054794520547949 0.026027397260273977 0.31250000000000006 0.88630136986301389 1.0000000180025095e-35 0.43750000000000006 0.92739726027397273 0.88356164383561653 1.0000000180025095e-35 0.93750000000000011 0.50000000000000011 0.48333333333333339 0.93750000000000011 0.51666666666666672 0.96575342465753444 0.8500000000000002 0.58333333333333337 0.81250000000000011 0.68750000000000011 0.91643835616438374 0.36956521739130438 0.07808219178082193 0.75000000000000011 1.0000000180025095e-35 0.07808219178082193 0.75000000000000011 0.81250000000000011 0.68750000000000011
decision_type=2 2 2 2 2 2 2 2 2 2 2 2 2 2 2 2 2 2 2 2 2 2 2 2 2 2 2 2 2 2
left_child=1 3 23 -1 5 -2 -7 9 11 -6 22 19 15 14 18 -10 -17 -18 -14 20 -9 -22 -11 24 -3 26 27 -5 29 -27
right_child=4 2 -4 25 7 6 -8 8 12 10 -12 -13 13 -15 -16 16 17 -19 -20 -21 21 -23 -24 -25 -26 28 -28 -29 -30 -31
leaf_value=0.083046572215191239 0.32141162485831787 -0.072433668028542134 0.020818117044817466 0.30436514806198445 0.14882492412016976 0.28165152750823935 -0.004733750488824363 -0.098552015683192593 -0.052055298223896131 -0.30551083592072248 -0.35003578977349215 0.30992892448463705 0.88575866321782815 0.12968872608402282 -0.051627336390982805 0.76187274390831594 -0.0092682812652213776 0.42662051356362102 0.35183369249708074 -0.19544108702090934 0.4291760113424406 -0.17842051565539147 0.18876114533147739 0.45820282738468959 0.49461023332859511 -0.040221083024618527 -0.13647289699830964 -0.16766019161049614 -0.096175420799162234 0.092787084086275951
leaf_weight=3547 1696 529 4846 456 771 1396 2933 2561 1182 256 1003 397 413 1410 123 192 705 407 272 1289 747 138 393 633 302 34814 6132 367 7028 5934
leaf_count=3547 1696 529 4846 456 771 1396 2933 2561 1182 256 1003 397 413 1410 123 192 705 407 272 1289 747 138 393 633 302 34814 6132 367 7028 5934
internal_value=0 -0.023048 0.0795534 -0.0341571 0.0814167 0.15343 0.0876187 0.046024 0.0817993 -0.0992033 -0.21496 -0.0166214 0.189175 0.287659 0.563325 0.101308 0.240322 0.15027 0.673748 -0.0440006 0.0126468 0.334432 -0.00620592 0.273974 0.13364 -0.0417528 -0.109215 0.0938751 -0.0319319 -0.0208515
internal_weight=0 64588 6310 58278 18284 6025 4329 12259 9836 2423 1652 5132 4704 2218 808 2486 1304 1112 685 4735 3446 885 649 1464 831 54731 6955 823 47776 40748
internal_count=82872 64588 6310 58278 18284 6025 4329 12259 9836 2423 1652 5132 4704 2218 808 2486 1304 1112 685 4735 3446 885 649 1464 831 54731 6955 823 47776 40748
is_linear=0
shrinkage=0.1


Tree=18
num_leaves=31
num_cat=0
split_feature=5 5 7 8 5 5 8 5 8 7 8 8 5 4 5 4 8 8 5 5 5 8 8 5 8 8 5 11 8 10
split_gain=12599.8 6609.09 10926 4819.79 6000.07 4623.31 5594.42 16373 7488.47 3947.52 3917.35 4036.33 5262.24 6887.85 3977.26 5866.93 3615.63 9322.46 16648.2 5527.1 4611.36 14707.2 9589.21 6468.85 5479.5 5264.44 5092.36 4961.74 4582.27 4171.72
threshold=0.78493150684931512 0.60958904109589052 0.50961538461538469 0.93750000000000011 0.22602739726027402 0.58767123287671252 0.31250000000000006 0.54383561643835632 0.93750000000000011 0.99038461538461553 0.18750000000000003 1.0000000180025095e-35 0.96301369863013708 1.0000000180025095e-35 0.88630136986301389 1.0000000180025095e-35 0.81250000000000011 0.68750000000000011 0.25342465753424664 0.44520547945205485 0.28082191780821925 0.31250000000000006 0.43750000000000006 0.43972602739726036 0.43750000000000006 1.0000000180025095e-35 0.0095890410958904132 1.0000000180025095e-35 0.56250000000000011 1.0000000180025095e-35
decision_type=2 2 2 2 2 2 2 2 2 2 2 2 2 2 2 2 2 2 2 2 2 2 2 2 2 2 2 2 2 2
left_child=1 2 3 16 -5 6 7 9 -8 -4 11 12 -2 -14 -13 -16 17 20 -19 -18 21 25 -22 28 -23 -1 -26 29 -24 -25
right_child=10 -3 5 4 -6 -7 8 -9 -10 -11 -12 14 13 -15 15 -17 19 18 -20 -21 22 24 23 27 26 -27 -28 -29 -30 -31
leaf_value=-0.023342988508439886 0.16705649089790239 -0.082314984637391841 -0.13671802698510782 0.24172653177929884 -0.011055039371048092 -0.031936563142380824 0.031101719571426163 0.59695217981440041 0.44444045742504362 0.4467675767838955 0.048390597205163401 0.62984736295985 0.1515483345769878 -0.50149814200937948 0.69818554703782254 0.10971001215321088 -0.15378289242134682 -0.02570991239603539 0.40143581978729465 0.14971531634600901 -0.14777766210285528 -0.20961194372321856 0.074793314079506151 0.35286159408392259 0.56211288548006189 0.14111979815771497 -0.05697284092017884 -0.26817039790330455 -0.18193283595183585 -0.15392091391213161
leaf_weight=2955 1936 13774 632 1475 2584 1719 3195 904 508 142 14452 282 336 311 205 976 4392 2667 1387 695 8539 2950 1390 1086 136 5702 5768 192 1391 191
leaf_count=2955 1936 13774 632 1475 2584 1719 3195 904 508 142 14452 282 336 311 205 976 4392 2667 1387 695 8539 2950 1390 1086 136 5702 5768 192 1391 191
internal_value=0 -0.0209019 -0.00418443 -0.0229577 0.0808033 0.110835 0.156444 0.307914 0.087806 -0.0296703 0.0727397 0.159713 0.0845434 -0.162358 0.292428 0.211859 -0.033636 -0.0219851 0.12043 -0.112318 -0.0410396 -0.00770034 -0.0866885 0.0360504 -0.0983202 0.0849817 -0.0427121 0.2058 -0.0536159 0.277062
internal_weight=0 64374 50600 43500 4059 7100 5381 1678 3703 774 18498 4046 2583 647 1463 1181 39441 34354 4054 5087 30300 17511 12789 4250 8854 8657 5904 1469 2781 1277
internal_count=82872 64374 50600 43500 4059 7100 5381 1678 3703 774 18498 4046 2583 647 1463 1181 39441 34354 4054 5087 30300 17511 12789 4250 8854 8657 5904 1469 2781 1277
is_linear=0
shrinkage=0.1


Tree=19
num_leaves=31
num_cat=0
split_feature=5 5 7 8 5 5 8 5 8 5 8 8 5 5 7 8 8 8 5 5 8 8 8 8 8 5 4 4 0 8
split_gain=10239.1 5212.13 8850.04 3904.03 5221.26 3744.88 4531.48 13262.2 6065.66 3554.96 3345.15 12974.5 3794.08 3261.99 3197.49 3154.56 3092.02 5015.02 9964.86 5329.78 4602.02 10111.5 5048.67 4427.86 6752.33 4011.89 5984.71 3773.18 3067.64 3042.72
threshold=0.78767123287671248 0.60958904109589052 0.50961538461538469 0.93750000000000011 0.35753424657534255 0.58767123287671252 0.31250000000000006 0.54383561643835632 0.93750000000000011 0.79315068493150698 0.43750000000000006 0.56250000000000011 0.67260273972602758 0.48356164383561651 0.99038461538461553 0.18750000000000003 0.31250000000000006 0.43750000000000006 0.91643835616438374 0.88356164383561653 0.68750000000000011 0.81250000000000011 0.93750000000000011 0.68750000000000011 0.56250000000000011 0.89452054794520552 1.0000000180025095e-35 1.0000000180025095e-35 0.36956521739130438 1.0000000180025095e-35
decision_type=2 2 2 2 2 2 2 2 2 2 2 2 2 2 2 2 2 2 2 2 2 2 2 2 2 2 2 2 2 2
left_child=1 2 3 -1 -5 6 7 14 -8 -2 -3 12 -12 -6 -4 29 25 19 20 -18 -19 -22 -23 24 -20 -11 -27 28 -21 -9
right_child=9 10 5 4 13 -7 8 15 -10 16 11 -13 -14 -15 -16 -17 17 18 23 27 21 22 -24 -25 -26 26 -28 -29 -30 -31
leaf_value=-0.030272438395675325 0.39644052075425862 -0.12726265694182209 -0.12304622297929718 0.15664111952720977 -0.16386078045314009 -0.028742909862228074 0.027991545682966842 0.48390098798431852 0.39999640685814164 0.24376931437441085 0.018538822448633262 -0.093673093323964854 0.34510863022137261 0.19214158058609992 0.40209082378415578 0.31181045936967206 0.12646450043584292 -0.15415987849960017 0.098646303072198405 -0.2797987942118198 0.35968977796787582 -0.20321721167711884 0.27745763125496298 0.068859596003843768 0.42746230567320087 0.23339215702174451 -0.021104249715401414 -0.31987126645365604 0.16504597823839381 0.96477643500628152
leaf_weight=39441 320 6235 632 2623 1100 1719 3195 304 508 1802 551 6198 1004 336 142 368 728 2159 1357 256 712 1079 274 2915 1157 1396 2733 1003 393 232
leaf_count=39441 320 6235 632 2623 1100 1719 3195 304 508 1802 551 6198 1004 336 142 368 728 2159 1357 256 712 1079 274 2915 1157 1396 2733 1003 393 232
internal_value=0 -0.018702 -0.00376598 -0.0206619 0.0727229 0.0997513 0.1408 0.277123 0.0790254 0.0660645 -0.0727312 -0.0288768 0.229392 -0.0805622 -0.0267033 0.537257 0.0601794 0.0310523 0.0631081 -0.0989622 -0.0520786 0.0546495 -0.105874 0.152728 0.249975 0.119273 0.0649401 -0.198303 -0.0104244 0.692041
internal_weight=0 64588 50600 43500 4059 7100 5381 1678 3703 18284 13988 7753 1555 1436 774 904 17964 12033 9653 2380 4224 2065 1353 5429 2514 5931 4129 1652 649 536
internal_count=82872 64588 50600 43500 4059 7100 5381 1678 3703 18284 13988 7753 1555 1436 774 904 17964 12033 9653 2380 4224 2065 1353 5429 2514 5931 4129 1652 649 536
is_linear=0
shrinkage=0.1


Tree=20
num_leaves=31
num_cat=0
split_feature=7 5 5 8 6 8 2 5 5 8 8 8 5 6 0 4 8 8 6 8 4 8 5 5 8 4 7 6 5 1
split_gain=8428.98 5315.55 6558.18 9084.48 4311.79 4731.01 10345.3 4270.32 4249.03 4393.42 6963.61 5213.2 4374.01 4066.21 3685.09 3581.15 2707.53 3789.42 5216.09 3610.88 2769.44 2694.44 2538.88 4280.95 2450.64 2401.73 2330.44 2184.73 3306.3 4826.39
threshold=0.74038461538461553 0.61506849315068501 0.47808219178082201 0.68750000000000011 0.55000000000000016 0.31250000000000006 0.50000000000000011 0.48904109589041106 0.031506849315068503 0.18750000000000003 0.56250000000000011 1.0000000180025095e-35 0.0095890410958904132 0.083333333333333356 0.45652173913043487 0.75000000000000011 0.81250000000000011 0.93750000000000011 0.48333333333333339 0.68750000000000011 1.0000000180025095e-35 0.43750000000000006 0.57123287671232881 0.59863013698630152 0.81250000000000011 1.0000000180025095e-35 0.99038461538461553 0.15000000000000005 0.77397260273972612 0.58333333333333337
decision_type=2 2 2 2 2 2 2 2 2 2 2 2 2 2 2 2 2 2 2 2 2 2 2 2 2 2 2 2 2 2
left_child=1 2 8 4 13 6 -6 21 9 11 -11 15 24 -4 -3 -1 19 -18 25 20 -2 -7 -5 -24 -12 -19 -22 -21 29 -29
right_child=16 14 3 22 5 7 -8 -9 -10 10 12 -13 -14 -15 -16 -17 17 18 -20 27 26 -23 23 -25 -26 -27 -28 28 -30 -31
leaf_value=0.33988298581292237 0.13512700409590869 -0.14484452174142307 0.13753416449081357 0.26825517804366128 -0.14335964427683157 -0.10899254437341976 0.46777099801681055 -0.10731804854511373 -0.03389636757489408 -0.14974056267809541 0.90994472590359787 0.53780461961385051 0.094823386566329673 -0.10819730392272578 -0.028678557701213636 -0.22137308238074183 -0.081910990079161833 0.78711163568146092 0.40497001316355763 -0.021776674137754762 0.024590653903821175 0.53985782949991223 -0.074093966968029348 0.32891931820395515 0.23453403421810695 -0.073994781337651208 0.29280863878996793 0.086136946794779401 0.20815655574261999 1.5195643357932569
leaf_weight=216 3299 5043 837 2137 432 96 772 1142 36268 1329 110 404 1365 3445 5956 240 2872 34 437 386 11904 192 681 430 105 684 333 46 1629 48
leaf_count=216 3299 5043 837 2137 432 96 772 1142 36268 1329 110 404 1365 3445 5956 240 2872 34 437 386 11904 192 681 430 105 684 333 46 1629 48
internal_value=0 -0.0189783 -0.00518339 0.0665521 0.00176351 0.102437 0.248495 -0.0205369 -0.0233945 0.0776617 0.018958 0.276231 0.160857 -0.0601643 -0.0819402 0.0444851 0.0535932 -0.0203941 0.132573 0.0704788 0.0538116 0.323574 0.204507 0.0818878 0.580093 -0.0332182 0.0318895 0.193259 0.241433 0.8181
internal_weight=0 61200 50201 10164 6916 2634 1204 1430 40037 3769 2909 860 1580 4282 10999 456 21672 4027 1155 17645 15536 288 3248 1111 215 718 12237 2109 1723 94
internal_count=82872 61200 50201 10164 6916 2634 1204 1430 40037 3769 2909 860 1580 4282 10999 456 21672 4027 1155 17645 15536 288 3248 1111 215 718 12237 2109 1723 94
is_linear=0
shrinkage=0.1


Tree=21
num_leaves=31
num_cat=0
split_feature=5 8 5 8 8 5 0 5 8 8 5 8 5 5 16 5 5 5 8 5 5 8 6 8 6 4 4 5 5 7
split_gain=6875.53 4076.42 6897.42 15643.8 4664.72 3933.45 7826.09 4718.82 6469.83 7431.78 6291.74 6764.16 6694.34 4895.77 4576.48 4303.62 4122.04 4174.26 3549.45 3412.77 18431.1 4995.43 3480.99 3366.47 3486.13 3491.69 3268.7 5857.29 3253.46 5776.38
threshold=0.78767123287671248 0.43750000000000006 0.26986301369863019 0.31250000000000006 1.0000000180025095e-35 0.012328767123287674 0.58695652173913049 0.12739726027397266 0.56250000000000011 0.68750000000000011 0.67808219178082207 0.81250000000000011 0.25342465753424664 0.67260273972602758 1.0000000180025095e-35 0.51643835616438361 0.54931506849315082 0.43972602739726036 0.93750000000000011 0.53835616438356182 0.59863013698630152 0.31250000000000006 1.0000000180025095e-35 0.93750000000000011 0.51666666666666672 0.75000000000000011 0.75000000000000011 0.07808219178082193 0.48356164383561651 0.43269230769230776
decision_type=2 2 2 2 2 2 2 2 2 2 2 2 2 2 2 2 2 2 2 2 2 2 2 2 2 2 2 2 2 2
left_child=1 2 3 4 26 6 -3 23 13 16 11 12 -11 -9 18 28 17 -10 -13 -4 21 -21 -23 -7 -25 -26 27 -1 29 -14
right_child=-2 5 19 -5 -6 7 -8 8 9 10 -12 14 15 -15 -16 -17 -18 -19 -20 20 -22 22 -24 24 25 -27 -28 -29 -30 -31
leaf_value=0.28106265785440976 0.054136429704206047 0.0013223364729012177 -0.12325263224180692 -0.18069951528447345 0.1382515742411054 -0.09934206401383941 0.61401089838050804 0.072687496813665639 -0.10071717223444324 -0.035156103662210024 -0.103210991836257 0.0041314407190982576 0.3998077789889205 0.31574325654744401 -0.059220674409886959 0.13227212047966494 -0.21361394702514011 0.14197044282968671 0.17761951233896828 0.34842644394343514 -0.11349131138105201 1.1594188809394836 -0.073533073584278505 0.27592998755854053 -0.26453038487093528 0.42989700500282552 -0.22332290461382029 -0.064403752771235098 0.79505019040668712 -0.35265275060603052
leaf_weight=694 18284 609 9397 2974 5683 5970 317 4747 2732 1086 2847 2612 1050 1004 4374 1332 2087 957 2150 1315 6618 24 499 524 327 93 607 1676 170 113
leaf_count=694 18284 609 9397 2974 5683 5970 317 4747 2732 1086 2847 2612 1050 1004 4374 1332 2087 957 2150 1315 6618 24 499 524 327 93 607 1676 170 113
internal_value=0 -0.0153253 -0.0427352 0.0171775 0.085132 0.00770072 0.211066 0.00219038 0.0209039 -0.00428599 0.031328 0.0610504 0.174117 0.11512 0.0146281 0.259397 -0.101299 -0.0377592 0.0824597 -0.0817777 -0.0356873 0.244458 -0.016954 -0.0715947 0.103884 -0.110764 -0.0162715 0.0367581 0.386427 0.326697
internal_weight=0 64588 29487 11634 8660 35101 926 34175 27261 21510 15734 12887 3751 5751 9136 2665 5776 3689 4762 17853 8456 1838 523 6914 944 420 2977 2370 1333 1163
internal_count=82872 64588 29487 11634 8660 35101 926 34175 27261 21510 15734 12887 3751 5751 9136 2665 5776 3689 4762 17853 8456 1838 523 6914 944 420 2977 2370 1333 1163
is_linear=0
shrinkage=0.1


Tree=22
num_leaves=31
num_cat=0
split_feature=7 8 5 5 4 5 5 8 8 5 5 8 5 8 8 5 8 6 5 8 6 6 5 6 5 3 4 8 0 8
split_gain=5710.54 3981.82 3278.62 3028.22 4258.71 2984.51 3997.28 4916.24 4685.13 10233.9 4976.35 9289.39 3553.09 3546.57 3325.63 3179.03 2957.71 3469.3 3238.84 2950.39 2678.2 2575.1 2408.16 2257.23 2241.24 2188.51 3089.58 2180.42 3163.17 2962.39
threshold=0.74038461538461553 0.93750000000000011 0.22054794520547949 0.07808219178082193 0.75000000000000011 0.60958904109589052 0.4342465753424658 0.81250000000000011 0.68750000000000011 0.25342465753424664 0.28082191780821925 0.31250000000000006 0.031506849315068503 0.43750000000000006 1.0000000180025095e-35 0.0095890410958904132 0.68750000000000011 0.55000000000000016 0.47260273972602745 0.56250000000000011 0.48333333333333339 0.55000000000000016 0.20410958904109591 0.083333333333333356 0.039726027397260277 1.0000000180025095e-35 0.75000000000000011 0.81250000000000011 0.58695652173913049 0.68750000000000011
decision_type=2 2 2 2 2 2 2 2 2 2 2 2 2 2 2 2 2 2 2 2 2 2 2 2 2 2 2 2 2 2
left_child=1 5 3 4 24 6 7 8 10 12 11 14 -10 -13 20 19 21 -18 -19 -15 25 23 -22 -8 -3 26 -1 29 -29 -2
right_child=27 2 -4 -5 -6 -7 16 -9 9 -11 -12 13 -14 15 -16 -17 17 18 -20 -21 22 -23 -24 -25 -26 -27 -28 28 -30 -31
leaf_value=0.28871235815135554 0.044168896217403129 0.17005646820612175 0.020368939275965895 0.35720356806732367 0.38826827608104314 -0.072963519004397251 0.11661695322820756 -0.13029673120592086 0.25166886702601643 0.35757446215607608 -0.095976801566999601 -0.16257590135840416 -0.063989242808568422 0.010444926925831372 0.11725725826746235 -0.039570156644255915 0.22903781153347441 -0.42456360798847825 0.066576649244641364 0.94359797136858115 0.0099475350814213978 0.075358134299058577 0.31327734420343223 -0.062436171064194607 -0.25706243977840265 -0.18772976658817886 -0.16549241906748369 -0.095481837029075187 0.085026475788132327 0.17047500988422604
leaf_weight=288 15536 194 4559 633 269 10166 837 4296 424 1028 8059 2950 2243 72 5702 5768 1520 158 894 64 966 3641 359 4433 335 1030 312 2394 1633 2109
leaf_count=288 15536 194 4559 633 269 10166 837 4296 424 1028 8059 2950 2243 72 5702 5768 1520 158 894 64 966 3641 359 4433 335 1030 312 2394 1633 2109
internal_value=0 -0.015621 0.0618182 0.193871 0.0643098 -0.0240227 -0.0129773 -0.0304023 -0.0157382 0.0895173 -0.0309481 -0.00102031 -0.0138059 -0.0730401 0.0726384 -0.0283026 0.0379503 0.132417 -0.00718776 0.449576 -0.0134586 0.0106843 0.0921327 -0.0339983 -0.100425 -0.0992921 0.0525259 0.0441124 -0.0222834 0.0592655
internal_weight=0 61200 5990 1431 798 55210 45044 33561 29265 3695 25570 17511 2667 8854 8657 5904 11483 2572 1052 136 2955 8911 1325 5270 529 1630 600 21672 4027 17645
internal_count=82872 61200 5990 1431 798 55210 45044 33561 29265 3695 25570 17511 2667 8854 8657 5904 11483 2572 1052 136 2955 8911 1325 5270 529 1630 600 21672 4027 17645
is_linear=0
shrinkage=0.1


Tree=23
num_leaves=31
num_cat=0
split_feature=5 5 8 7 8 8 5 5 8 8 7 5 5 8 8 4 0 6 5 16 5 8 6 1 8 5 8 0 6 5
split_gain=4631.77 3224.26 3604.74 3017.34 4053.05 3638.61 8126.32 4024.36 7524.4 3048.3 6397.81 7960.61 5430.8 4235.31 3557.07 4689.31 3093.3 6442.21 3063.66 2985.47 2899.75 2872.72 2810.93 3313.75 2693.76 2575.01 2389.82 2330.26 2169.34 1950.61
threshold=0.76575342465753438 0.62054794520547951 0.93750000000000011 0.4134615384615386 0.81250000000000011 0.68750000000000011 0.25342465753424664 0.28082191780821925 0.31250000000000006 0.43750000000000006 0.52884615384615397 0.59863013698630152 0.54383561643835632 0.31250000000000006 1.0000000180025095e-35 0.75000000000000011 0.58695652173913049 0.15000000000000005 0.58767123287671252 1.0000000180025095e-35 0.020547945205479454 0.43750000000000006 0.25000000000000006 0.41666666666666669 1.0000000180025095e-35 0.0095890410958904132 0.56250000000000011 0.45652173913043487 0.48333333333333339 0.20410958904109591
decision_type=2 2 2 2 2 2 2 2 2 2 2 2 2 2 2 2 2 2 2 2 2 2 2 2 2 2 2 2 2 2
left_child=1 2 3 4 5 7 20 8 24 10 -5 13 16 14 15 18 22 -18 -12 -4 -7 -10 -11 -24 28 26 -23 -3 -1 -30
right_child=-2 27 19 9 -6 6 -8 -9 21 12 11 -13 -14 -15 -16 -17 17 -19 -20 -21 -22 25 23 -25 -26 -27 -28 -29 29 -31
leaf_value=-0.089362895042829057 0.041941217068139441 -0.11045526557598745 0.14984273133766049 -0.099028325150741059 -0.11857964455114181 0.3253863221162866 0.32087358540027511 -0.087387210950756647 -0.14631830660371364 -0.07224576164512729 0.3050126014366985 -0.17791349304866683 -0.032387513742241816 -0.02556705999503775 0.40507630058451866 -0.8619863867759705 0.70826277132493576 0.16930458002213555 -0.32827030392169643 -0.007901750405075578 -0.04461103783252035 0.0094004352732251096 -0.0087181749750688264 0.28732160280958963 0.10553153235655083 -0.035613140899518635 0.84923818586394195 -0.019825980399478416 0.0089527783793923645 0.28194961450905814
leaf_weight=1630 19982 5239 2685 4014 4248 232 1008 7771 2950 797 374 767 2665 596 953 48 268 1286 96 2169 2435 72 667 873 5702 5768 64 6188 966 359
leaf_count=1630 19982 5239 2685 4014 4248 232 1008 7771 2950 797 374 767 2665 596 953 48 268 1286 96 2169 2435 72 667 873 5702 5768 64 6188 966 359
internal_value=0 -0.013326 -0.00265649 -0.0111974 -0.027363 -0.0139815 0.0789938 -0.0274965 -0.000918277 0.0288489 -0.0178117 0.0972214 0.0775876 0.199316 0.29043 0.0795085 0.152911 0.262252 0.175661 0.0793549 -0.0124253 -0.0657361 0.080204 0.159102 0.0653746 -0.0254723 0.404618 -0.0613773 -0.0121128 0.0829195
internal_weight=0 62890 51463 46609 33205 28957 3675 25282 17511 13404 6848 2834 6556 2067 1471 518 3891 1554 470 4854 2667 8854 2337 1540 8657 5904 136 11427 2955 1325
internal_count=82872 62890 51463 46609 33205 28957 3675 25282 17511 13404 6848 2834 6556 2067 1471 518 3891 1554 470 4854 2667 8854 2337 1540 8657 5904 136 11427 2955 1325
is_linear=0
shrinkage=0.1


Tree=24
num_leaves=31
num_cat=0
split_feature=5 8 7 4 8 8 5 4 5 4 8 5 5 8 8 7 8 5 5 8 8 0 0 6 5 5 4 5 8 8
split_gain=3776.91 3130.78 3047.14 4196.38 2767.1 3593.09 4242.91 6172.89 2968.94 4148.79 2662.99 3030.19 2775.89 2540.59 3216.49 2619.26 8053.22 2501.7 2441.55 5709.86 3008.03 4500.14 2418.28 6577.81 2476.67 2347.21 2201.39 2148.75 23710.2 4742.08
threshold=0.78493150684931512 1.0000000180025095e-35 0.067307692307692332 0.75000000000000011 0.18750000000000003 1.0000000180025095e-35 0.95753424657534258 1.0000000180025095e-35 0.88630136986301389 1.0000000180025095e-35 0.93750000000000011 0.96027397260273994 0.89452054794520552 0.81250000000000011 0.68750000000000011 0.93269230769230782 0.56250000000000011 0.91643835616438374 0.026027397260273977 0.18750000000000003 0.56250000000000011 0.5434782608695653 0.5434782608695653 0.48333333333333339 0.94109589041095909 0.0095890410958904132 0.75000000000000011 0.12739726027397266 0.18750000000000003 0.31250000000000006
decision_type=2 2 2 2 2 2 2 2 2 2 2 2 2 2 2 2 2 2 2 2 2 2 2 2 2 2 2 2 2 2
left_child=1 2 3 -1 5 6 -2 -8 -7 -10 13 12 -12 14 15 -6 22 -16 19 -3 -21 -22 -17 24 -24 -23 -4 28 -20 -30
right_child=4 18 26 -5 10 8 7 -9 9 -11 11 -13 -14 -15 17 16 -18 -19 27 20 21 25 23 -25 -26 -27 -28 -29 29 -31
leaf_value=0.23973393495525644 0.12336676284674118 0.44694620236194632 -0.09592512405166613 -0.13122239548545114 -0.037273430911516081 0.52966595947187634 0.11861533298312377 -0.45860165307225459 0.57749040063652324 0.082628839957211972 0.55495741662816112 0.62512912087970318 0.022921538753004705 -0.082738232613021462 0.28780583776773239 -0.090091782955044594 0.34478911258902373 0.049326092508788534 0.3538921982335132 -0.074222623877007149 -0.012884719872791507 0.649688861480338 1.1171100314249072 -0.026925926135396058 0.37533164526570906 0.21601833246947666 -0.77578774491945912 0.00072220738527727188 -0.29250082501386065 -0.080894102402587154
leaf_weight=671 1841 376 6131 559 5651 282 384 358 205 976 117 135 606 2489 770 1601 832 1026 1254 1379 903 173 57 954 214 448 48 44097 1245 7090
leaf_count=671 1841 376 6131 559 5651 282 384 358 205 976 117 135 606 2489 770 1601 832 1026 1254 1379 903 173 57 954 214 448 48 44097 1245 7090
internal_value=0 -0.0114438 -0.0725937 0.0711448 0.0398251 0.112922 0.0420004 -0.15988 0.238139 0.168528 0.0193607 0.190225 0.109019 0.00857643 0.0290431 0.00540384 0.0713331 0.15157 -0.00349054 0.0802794 0.0327883 0.129618 -0.00917482 0.0965787 0.531351 0.336832 -0.101206 -0.00860699 -0.0515092 -0.112502
internal_weight=0 64374 7409 1230 18498 4046 2583 742 1463 1181 14452 858 723 13594 11105 9309 3658 1796 56965 3279 2903 1524 2826 1225 271 621 6179 53686 9589 8335
internal_count=82872 64374 7409 1230 18498 4046 2583 742 1463 1181 14452 858 723 13594 11105 9309 3658 1796 56965 3279 2903 1524 2826 1225 271 621 6179 53686 9589 8335
is_linear=0
shrinkage=0.1


Tree=25
num_leaves=31
num_cat=0
split_feature=7 8 8 8 5 5 5 7 8 5 5 5 8 5 8 5 5 5 5 5 5 5 5 5 5 8 8 4 8 5
split_gain=3181.87 2499.72 3563.44 6951.96 3957.46 4002.54 3263.06 3917.65 2471.64 7670.14 8008.65 5789.02 3154.98 6653.96 4616.74 4806.99 8186.42 3608.87 3074.65 2430.44 5269.99 4536.68 2419.35 2395.08 15450.2 2377.18 4704.63 3580.64 2914.87 2425.51
threshold=0.93269230769230782 0.93750000000000011 0.81250000000000011 0.68750000000000011 0.24794520547945212 0.51643835616438361 0.48356164383561651 0.43269230769230776 0.56250000000000011 0.91643835616438374 0.54931506849315082 0.012328767123287674 0.43750000000000006 0.12739726027397266 0.31250000000000006 0.78493150684931512 0.26986301369863019 0.89452054794520552 0.89452054794520552 0.76301369863013713 0.77397260273972612 0.68904109589041107 0.012328767123287674 0.53835616438356182 0.59863013698630152 0.56250000000000011 0.68750000000000011 1.0000000180025095e-35 1.0000000180025095e-35 0.96027397260273994
decision_type=2 2 2 2 2 2 2 2 2 2 2 2 2 2 2 2 2 2 2 2 2 2 2 2 2 2 2 2 2 2
left_child=1 2 3 8 22 6 7 -6 12 10 11 -10 14 -14 15 16 -1 -17 -16 21 -21 -7 -5 -18 -25 27 -27 -2 29 -29
right_child=25 -3 -4 4 5 19 -8 -9 9 -11 -12 -13 13 -15 18 17 23 -19 -20 20 -22 -23 -24 24 -26 26 -28 28 -30 -31
leaf_value=0.061183862478108801 0.11086662952875487 0.051090894276494464 -0.071349697724555974 0.48814780311064521 0.2873630651008644 0.117099384673485 0.69714615572901339 -0.33137374098322037 0.70422815602006661 0.41234993870871572 -0.20714556313183558 -0.022436549361535191 -0.1367563758851254 0.087795153954013244 -0.067045267049421389 0.19976035906333189 -0.10500423707755367 -0.0016004147416410538 -0.30818439206190873 1.0378579847301757 0.14427930078191029 -0.202440203370512 -0.028482520416819698 0.28448938102757082 -0.1016040403643259 0.31935180253958184 0.049029376120435612 -0.016294504638698675 -0.0068671306391611623 -0.43406546993883782
leaf_weight=8375 2240 6855 8875 94 1084 1428 170 113 112 325 3215 5185 1614 7235 8244 1968 7048 1625 565 70 1155 645 2539 1315 4893 910 2201 238 2202 334
leaf_count=8375 2240 6855 8875 94 1084 1428 170 113 112 325 3215 5185 1614 7235 8244 1968 7048 1625 565 70 1155 645 2539 1315 4893 910 2201 238 2202 334
internal_value=0 -0.00646029 -0.0122712 -0.00338694 0.0879798 0.143303 0.287177 0.228953 -0.0162796 -0.0644358 -0.0826401 -0.00707192 -0.00635569 0.0468384 -0.0201868 0.00157896 -0.0162128 0.108691 -0.0825117 0.0836679 0.195341 0.0176768 -0.0100384 -0.0651113 -0.0198204 0.0594323 0.128102 0.0168257 -0.0591122 -0.260238
internal_weight=0 74747 67892 59017 7298 4665 1367 1197 51719 8837 8512 5297 42882 8849 34033 25224 21631 3593 8809 3298 1225 2073 2633 13256 6208 8125 3111 5014 2774 572
internal_count=82872 74747 67892 59017 7298 4665 1367 1197 51719 8837 8512 5297 42882 8849 34033 25224 21631 3593 8809 3298 1225 2073 2633 13256 6208 8125 3111 5014 2774 572
is_linear=0
shrinkage=0.1


Tree=26
num_leaves=31
num_cat=0
split_feature=7 8 8 8 5 5 5 7 4 4 5 0 8 5 5 5 8 2 8 5 5 5 8 5 8 5 5 5 5 0
split_gain=2577.32 2024.77 2886.38 5631.09 3205.55 3242.06 2643.08 3173.3 2280.99 2315.43 2165.74 2238.97 2002.03 6212.81 6487 4689.1 2555.53 5662.4 3739.56 3903.38 6585.28 3051.06 2812.16 2490.46 2227.29 2185.31 2163 3282.56 2093.74 2055.05
threshold=0.93269230769230782 0.93750000000000011 0.81250000000000011 0.68750000000000011 0.24794520547945212 0.51643835616438361 0.48356164383561651 0.43269230769230776 0.75000000000000011 1.0000000180025095e-35 0.036986301369863021 0.50000000000000011 0.56250000000000011 0.91643835616438374 0.54931506849315082 0.012328767123287674 0.43750000000000006 1.0000000180025095e-35 0.31250000000000006 0.78767123287671248 0.26986301369863019 0.88356164383561653 1.0000000180025095e-35 0.89452054794520552 0.18750000000000003 0.24794520547945212 0.79315068493150698 0.67260273972602758 0.43972602739726036 0.50000000000000011
decision_type=2 2 2 2 2 2 2 2 2 2 2 2 2 2 2 2 2 2 2 2 2 2 2 2 2 2 2 2 2 2
left_child=1 2 3 12 10 6 7 -6 9 -3 11 -5 16 14 15 -14 18 -18 19 20 -1 22 -21 25 -23 -20 27 -19 -17 -29
right_child=-2 8 -4 4 5 -7 -8 -9 -10 -11 -12 -13 13 -15 -16 28 17 26 23 21 -22 24 -24 -25 -26 -27 -28 29 -30 -31
leaf_value=0.055065474676145955 0.053489096701717226 0.92589985152770726 -0.064214727607954866 -0.021316085548639514 0.25862676020354253 0.075301083822903681 0.62743154055931993 -0.29823636394818276 0.33140736335133752 0.030380600756774259 -0.054026048839571808 0.39447615616191484 0.63380533475428824 0.37111493414525804 -0.186431001612821 -0.050425506383572641 -0.080422840313228341 0.082809610968720443 -0.13489595521507319 0.071895905173958927 -0.05808911873582813 0.089731018368522569 0.33503106518215364 -0.27736595135346981 -0.14003767549715443 -0.024786102869985491 -0.012948869874080239 0.42484958042983068 0.11337396467596979 0.1445027550703592
leaf_weight=8375 8125 29 8875 276 1084 3298 170 113 269 6557 2113 244 112 325 3215 4228 2643 3718 2662 837 13328 1261 789 565 634 5582 1442 518 957 528
leaf_count=8375 8125 29 8875 276 1084 3298 170 113 269 6557 2113 244 112 325 3215 4228 2643 3718 2662 837 13328 1261 789 565 634 5582 1442 518 957 528
internal_value=0 -0.00581427 -0.0110441 -0.00304825 0.0791818 0.128973 0.258459 0.206057 0.0459818 0.0343238 -0.0090346 0.173786 -0.0146516 -0.0579922 -0.0743761 -0.00636473 -0.00572012 0.0421546 -0.0181681 0.00142106 -0.0144237 0.0990864 0.19958 -0.0742605 0.0128585 -0.0603407 0.0943576 0.126838 -0.0201929 0.283336
internal_weight=0 74747 67892 59017 7298 4665 1367 1197 6855 6586 2633 520 51719 8837 8512 5297 42882 8849 34033 25224 21703 3521 1626 8809 1895 8244 6206 4764 5185 1046
internal_count=82872 74747 67892 59017 7298 4665 1367 1197 6855 6586 2633 520 51719 8837 8512 5297 42882 8849 34033 25224 21703 3521 1626 8809 1895 8244 6206 4764 5185 1046
is_linear=0
shrinkage=0.1


Tree=27
num_leaves=31
num_cat=0
split_feature=5 8 7 4 4 5 7 8 8 0 5 0 8 5 6 3 6 5 6 8 6 8 6 0 5 8 11 7 8 8
split_gain=2109.63 2143.18 1877.76 3399.07 1852.32 1765.04 2610.94 1773.3 3911.47 1757.67 1718.09 1958.57 1664.6 4382.3 2120.17 2447.68 2033.8 1961.75 1633.88 1441.5 1433.28 1528.38 1449.41 1407.3 1991.16 1781.32 1254.66 1228 7858.02 3424.61
threshold=0.76575342465753438 1.0000000180025095e-35 0.067307692307692332 0.75000000000000011 0.75000000000000011 0.62054794520547951 0.43269230769230776 0.56250000000000011 0.43750000000000006 0.50000000000000011 0.75753424657534263 0.282608695652174 0.68750000000000011 0.48356164383561651 0.2166666666666667 0.59090909090909094 0.55000000000000016 0.59863013698630152 0.41666666666666674 0.81250000000000011 0.98333333333333339 0.18750000000000003 0.91666666666666685 0.45652173913043487 0.69726027397260293 0.68750000000000011 1.0000000180025095e-35 0.52884615384615397 0.31250000000000006 0.43750000000000006
decision_type=2 2 2 2 2 2 2 2 2 2 2 2 2 2 2 2 2 2 2 2 2 2 2 2 2 2 2 2 2 2
left_child=1 2 3 9 -4 6 18 8 -7 -1 -10 -12 17 16 15 19 26 20 -3 -15 22 -22 27 -9 25 -25 -14 29 -29 -8
right_child=-2 5 4 -5 -6 7 12 23 10 -11 11 -13 13 14 -16 -17 -18 -19 -20 -21 21 -23 -24 24 -26 -27 -28 28 -30 -31
leaf_value=0.36574281743489251 0.028305461339646551 0.01560137766844082 -0.07822477389195176 -0.12972508618984124 -0.70192843377590186 -0.048893637131980951 -0.066442652104374875 -0.13904399894135108 0.12526146772569677 0.042045990355980042 1.4410208247956777 0.29355012049496759 -0.010920921994887483 0.54593602653513562 0.20083676831926878 -0.12694918076185224 -0.23985967229074956 -0.11553718930456423 -0.028774206927145898 0.10051794695318678 1.0964168787002564 0.20034144792867747 -0.13683045513877173 -0.14437982852437667 -0.12349235952411092 0.11120741571477087 0.46357981706969442 0.35257080515410877 -0.032024802926129532 0.12379914938772829
leaf_weight=336 19982 15380 5963 559 48 3812 2359 2328 1197 335 21 51 431 94 2380 501 471 958 18017 320 24 92 477 364 1295 1087 64 813 1533 1580
leaf_count=336 19982 15380 5963 559 48 3812 2359 2328 1197 335 21 51 431 94 2380 501 471 958 18017 320 24 92 477 364 1295 1087 64 813 1533 1580
internal_value=0 -0.00899348 -0.0601696 0.0524054 -0.0832053 -0.00233448 0.00607969 -0.0400296 0.00172957 0.204136 0.153799 0.628229 0.0458845 0.0961892 0.1511 0.0217292 -0.0911094 0.0185303 -0.00833834 0.201652 0.0372038 0.385736 0.0312248 -0.0818464 -0.0333556 0.0470904 0.0504287 0.0439794 0.101256 0.00986658
internal_weight=0 62890 7241 1230 6011 55649 45494 10155 5081 671 1269 72 12097 4261 3295 915 966 7836 33397 414 6878 116 6762 5074 2746 1451 495 6285 2346 3939
internal_count=82872 62890 7241 1230 6011 55649 45494 10155 5081 671 1269 72 12097 4261 3295 915 966 7836 33397 414 6878 116 6762 5074 2746 1451 495 6285 2346 3939
is_linear=0
shrinkage=0.1


Tree=28
num_leaves=31
num_cat=0
split_feature=8 5 8 8 5 5 4 5 5 4 5 5 5 5 0 4 0 5 6 0 5 5 7 7 5 5 5 0 5 5
split_gain=1894.37 3444.3 3109.66 4112.08 2384.87 2640.81 2369.53 2279.13 2395 2898.85 2146.85 3223.62 3109.56 2870.21 3784.17 2800.74 2612.5 2400.89 2159.11 1833.48 1718.34 1713.51 2553.61 1700.42 1580.11 4608.5 3198.37 1898.19 2095.51 2781.61
threshold=0.93750000000000011 0.96027397260273994 0.81250000000000011 0.68750000000000011 0.24794520547945212 0.51643835616438361 1.0000000180025095e-35 0.22602739726027402 0.07808219178082193 0.75000000000000011 0.27534246575342475 0.35753424657534255 0.48356164383561651 0.58767123287671252 0.5434782608695653 1.0000000180025095e-35 0.58695652173913049 0.60958904109589052 0.55000000000000016 0.23913043478260873 0.039726027397260277 0.48356164383561651 0.43269230769230776 0.99038461538461553 0.76301369863013713 0.77397260273972612 0.68904109589041107 0.71739130434782616 0.53287671232876732 0.54383561643835632
decision_type=2 2 2 2 2 2 2 2 2 2 2 2 2 2 2 2 2 2 2 2 2 2 2 2 2 2 2 2 2 2
left_child=2 7 3 6 -5 21 -1 8 9 20 -9 -12 16 18 15 -15 -13 -16 19 -14 -2 22 -6 -8 26 -26 27 28 -7 -30
right_child=1 -3 -4 4 5 24 23 10 -10 -11 11 12 13 14 17 -17 -18 -19 -20 -21 -22 -23 -24 -25 25 -27 -28 -29 29 -31
leaf_value=0.076156227572857227 0.13046878879294568 0.54953381569297233 -0.056677201027822949 -0.0066576832184659504 0.23340225980000234 -0.47259710920445719 -0.012517239602130357 -0.20425993618037969 0.28812396845242433 0.28194512005198424 0.22460120261943373 -0.01906451391767405 0.428336239939269 0.81647355902579533 -0.37415269004519691 -0.14528226366217609 -0.33149653925459188 0.17020001300729526 0.38858567061216781 -0.050986966737695365 -0.24352078924970286 0.5255227548103123 -0.26613780171898876 0.21415113699105054 0.9287266692093441 0.10246142420037743 -0.17808248424483825 0.26703861388312261 0.93231102262224474 0.023387306595734125
leaf_weight=3299 194 135 9973 2709 1084 81 54011 432 677 302 716 640 104 31 88 1302 460 1022 364 343 335 170 113 333 70 1892 645 426 35 886
leaf_count=3299 194 135 9973 2709 1084 81 54011 432 677 302 716 640 104 31 88 1302 460 1022 364 343 335 170 113 333 70 1892 645 426 35 886
internal_value=0 0.0492213 -0.00464413 0.0032478 0.069914 0.108313 -0.00613287 0.0395862 0.148501 0.034752 0.00973469 0.0279685 -0.004367 0.0447682 -0.00934419 -0.122916 -0.149718 0.127044 0.207773 0.0605334 -0.106368 0.228437 0.186244 -0.0111283 0.0676171 0.131941 0.00673754 0.0902172 0.0150416 0.0579284
internal_weight=0 7145 75727 65754 8111 5402 57643 7010 1508 831 5502 5070 4354 3254 2443 1333 1100 1110 811 447 529 1367 1197 54344 4035 1962 2073 1428 1002 921
internal_count=82872 7145 75727 65754 8111 5402 57643 7010 1508 831 5502 5070 4354 3254 2443 1333 1100 1110 811 447 529 1367 1197 54344 4035 1962 2073 1428 1002 921
is_linear=0
shrinkage=0.1


Tree=29
num_leaves=31
num_cat=0
split_feature=5 8 4 8 0 6 6 8 1 6 5 0 1 6 6 0 0 6 6 6 0 8 8 6 5 0 6 8 0 1
split_gain=1548.18 3267.17 4654.79 3024.29 2576.05 8139.39 4068.21 3665.17 3271.85 2811 5622.88 2420.49 2289.05 2227.79 2326.88 2289.29 2100.72 2394.07 4487.32 2331.63 1861.47 2389.02 2408.95 1730.32 3245.52 1746.9 1708.92 1603.72 2451.82 3273.1
threshold=0.93013698630137009 0.43750000000000006 1.0000000180025095e-35 0.31250000000000006 0.50000000000000011 0.48333333333333339 0.8500000000000002 0.93750000000000011 0.41666666666666669 0.61666666666666681 0.97945205479452058 0.10869565217391305 0.41666666666666669 0.65000000000000002 0.71666666666666667 0.80434782608695665 0.10869565217391305 0.51666666666666672 0.61666666666666681 0.61666666666666681 0.58695652173913049 0.81250000000000011 0.56250000000000011 0.35000000000000003 0.94109589041095909 0.63043478260869579 0.51666666666666672 0.31250000000000006 0.58695652173913049 0.41666666666666669
decision_type=2 2 2 2 2 2 2 2 2 2 2 2 2 2 2 2 2 2 2 2 2 2 2 2 2 2 2 2 2 2
left_child=-1 2 27 -4 6 7 16 8 20 -7 13 -8 -13 15 -15 -11 19 -18 -19 26 -6 22 -22 24 25 -10 -3 -2 -29 -30
right_child=1 4 3 -5 5 9 11 -9 23 10 -12 12 -14 14 -16 -17 17 18 -20 -21 21 -23 -24 -25 -26 -27 -28 28 29 -31
leaf_value=-0.004672068338625047 0.16467857189476612 0.20137791988068129 -0.04991498419353671 -0.30953591324008978 0.32170050908444509 -0.18851669563410556 -0.053067705251516842 -0.076468626211758137 -0.034533598054857818 -0.33869940957852773 -0.032855580097640273 0.75422564648348711 0.18524526355491169 0.97223766905911002 0.343087082997311 0.76873349589960915 -0.20061203945443548 0.48429901313962742 -0.10331177940527417 -0.14051651478690261 1.1315611905952296 1.4317461342522593 0.35612298253663754 0.76048139694710859 -0.1543863205209611 0.81217991240257614 0.79593317334647073 -0.20680592125580369 0.68418721053335407 -0.10282495233695954
leaf_weight=74202 1200 233 1797 598 66 392 124 111 34 56 697 145 138 108 129 28 846 177 489 170 75 66 86 71 126 86 61 343 90 128
leaf_count=74202 1200 233 1797 598 66 392 124 111 34 56 697 145 138 108 129 28 846 177 489 170 75 66 86 71 126 86 61 343 90 128
internal_value=0 0.0399858 -0.0239905 -0.114739 0.0988882 0.178774 0.0274507 0.452078 0.548256 0.0390201 0.126637 0.315347 0.476772 0.472951 0.629789 0.0304449 -0.0318477 -0.0889658 0.0528551 0.154278 0.789151 0.925061 0.717352 0.325599 0.200084 0.572278 0.324738 0.0994294 -0.0401411 0.222088
internal_weight=0 8670 4156 2395 4514 2131 2383 721 610 1410 1018 407 283 321 237 84 1976 1512 666 464 293 227 161 317 246 120 294 1761 561 218
internal_count=82872 8670 4156 2395 4514 2131 2383 721 610 1410 1018 407 283 321 237 84 1976 1512 666 464 293 227 161 317 246 120 294 1761 561 218
is_linear=0
shrinkage=0.1


Tree=30
num_leaves=31
num_cat=0
split_feature=8 5 8 8 5 5 5 5 5 4 7 5 0 5 5 7 5 0 4 0 5 6 0 5 1 5 5 5 1 5
split_gain=1575.51 2705.15 2677.37 3383.57 1952.36 2234.45 2339.83 1856.22 2109.28 2348.06 1692.03 1555.89 2167.96 1527.38 2600.76 2561.24 2447.17 3077.08 2290.43 2187.84 2144.66 2045.41 1521.86 1465.79 1725.58 1435.42 3725.53 2430.82 1503.36 1407.63
threshold=0.93750000000000011 0.96027397260273994 0.81250000000000011 0.68750000000000011 0.25342465753424664 0.52191780821917821 0.52739726027397282 0.22054794520547949 0.07808219178082193 0.75000000000000011 0.74038461538461553 0.036986301369863021 0.50000000000000011 0.27534246575342475 0.35753424657534255 0.4711538461538462 0.58767123287671252 0.5434782608695653 1.0000000180025095e-35 0.58695652173913049 0.59315068493150702 0.55000000000000016 0.282608695652174 0.54383561643835632 0.41666666666666669 0.76301369863013713 0.77397260273972612 0.68904109589041107 0.58333333333333337 0.031506849315068503
decision_type=2 2 2 2 2 2 2 2 2 2 2 2 2 2 2 2 2 2 2 2 2 2 2 2 2 2 2 2 2 2
left_child=2 7 3 10 11 -6 -7 8 9 29 -1 12 -5 -9 -15 19 21 18 -18 -16 -19 22 -17 24 -8 27 28 -25 -27 -2
right_child=1 -3 -4 4 5 6 23 13 -10 -11 -12 -13 -14 14 15 16 17 20 -20 -21 -22 -23 -24 25 -26 26 -28 -29 -30 -31
leaf_value=-0.015828615977234815 0.2026800156174014 0.48827849009522684 -0.052516324542529129 -0.029899629070756158 0.20922598289544486 -0.6329958031574886 0.0028462911194021053 -0.16136067195936349 0.27403393107161844 0.254217814388284 0.022784154888760913 -0.044753856115992273 0.35468585993808049 0.20260829741301734 -0.014797464094999808 0.35274716998871058 0.73988427500570975 -0.86173442493785513 -0.129851775562116 -0.29764575490926176 0.13554070455767728 0.38039699425756496 -0.059378365650427048 0.079024932323955008 0.86150490236282351 0.15179325531829488 0.093415247130413978 -0.15980702702829599 1.1500632223983607 -0.18457365233064413
leaf_weight=42107 122 135 9973 336 1363 48 44 476 633 302 15536 2147 260 716 654 124 31 22 1302 470 1088 340 323 1256 50 22 1892 645 48 407
leaf_count=42107 122 135 9973 336 1363 48 44 476 633 302 15536 2147 260 716 654 124 31 22 1302 470 1088 340 323 1256 50 22 1892 645 48 407
internal_value=0 0.044888 -0.00423528 0.00308757 0.0635607 0.0986318 0.0609939 0.0363491 0.136505 0.031744 -0.00542166 -0.00507272 0.137873 0.0099107 0.0259906 -0.00305354 0.0421907 -0.00721264 -0.109625 -0.13307 0.115775 0.195548 0.0549473 0.0694123 0.45958 0.0599182 0.119921 -0.00200958 0.836321 -0.0952637
internal_weight=0 7145 75727 65754 8111 5368 4005 7010 1464 831 57643 2743 596 5546 5070 4354 3230 2443 1333 1124 1110 787 447 3957 94 3863 1962 1901 70 529
internal_count=82872 7145 75727 65754 8111 5368 4005 7010 1464 831 57643 2743 596 5546 5070 4354 3230 2443 1333 1124 1110 787 447 3957 94 3863 1962 1901 70 529
is_linear=0
shrinkage=0.1


Tree=31
num_leaves=31
num_cat=0
split_feature=8 8 16 5 5 7 8 2 4 5 8 5 5 8 5 0 5 8 8 8 5 0 6 8 6 1 0 5 5 5
split_gain=1416.15 3011.94 25870.6 25318.5 11211.8 5156.86 5825.37 5027.72 3345.13 3182.14 33303.2 47098.3 8261.13 3640.98 3555.87 2877.78 2536.53 3022.19 5291.24 3117.01 3020.69 2412.61 6563.15 3493.54 3312.02 3252.87 2714.38 2355.21 2637.98 2314.36
threshold=1.0000000180025095e-35 0.18750000000000003 1.0000000180025095e-35 0.28082191780821925 0.19863013698630141 0.12500000000000006 0.31250000000000006 1.0000000180025095e-35 1.0000000180025095e-35 0.28630136986301374 0.31250000000000006 0.20410958904109591 0.28082191780821925 0.43750000000000006 0.24794520547945212 0.58695652173913049 0.92739726027397273 0.56250000000000011 0.68750000000000011 0.81250000000000011 0.91643835616438374 0.50000000000000011 0.48333333333333339 0.93750000000000011 0.8500000000000002 0.58333333333333337 0.58695652173913049 0.79315068493150698 0.68904109589041107 0.54931506849315082
decision_type=2 2 2 2 2 2 2 2 2 2 2 2 2 2 2 2 2 2 2 2 2 2 2 2 2 2 2 2 2 2
left_child=-1 2 4 -4 -2 6 -3 -6 -9 10 11 15 14 -11 -13 -7 17 27 20 -20 29 24 23 25 -18 26 -23 28 -15 -19
right_child=1 5 3 -5 7 9 -8 8 -10 13 -12 12 -14 16 -16 -17 21 18 19 -21 -22 22 -24 -25 -26 -27 -28 -29 -30 -31
leaf_value=-0.03530443354420975 0.34111559891199228 -0.23513761109761575 -0.80547986754940626 -0.034253291827629387 -0.51801442474752046 -0.23799397950122425 -0.033836346564984326 0.47890927945013817 0.064404734702631278 -0.044516941980501351 -0.01275510720574531 1.5024373013330135 -0.09749621296456705 0.06570756708081546 1.0027861824676172 0.19397077101971455 -0.032845844035478113 -0.029463393296560517 0.092029263793831417 -0.0097429554079980409 0.34876226922869685 0.16821584622065228 0.031470953452736074 -0.10177802461070745 0.27909541907983421 0.20851677168581828 0.78921076061244444 -0.050927591323252176 0.257327732371256 -0.16084476682705107
leaf_weight=9992 2252 1688 576 1631 143 377 9690 205 3873 13200 7761 304 48 3500 268 261 2079 2300 4244 10345 150 90 1410 123 407 272 323 1241 904 3215
leaf_count=9992 2252 1688 576 1631 143 377 9690 205 3873 13200 7761 304 48 3500 268 261 2079 2300 4244 10345 150 90 1410 123 407 272 323 1241 904 3215
internal_value=0 0.00484031 0.0601277 -0.235534 0.160935 -0.00263468 -0.0637007 0.0648045 0.0852418 0.0105191 0.0646101 0.5419 1.16259 -0.000618185 1.26834 -0.0612811 0.0183167 0.00604709 -0.0119871 0.019863 -0.0940101 0.0858698 0.161689 0.388926 0.0182242 0.477038 0.653885 0.0707528 0.105041 -0.106053
internal_weight=0 72880 8680 2207 6473 64200 11378 4221 4078 52822 9019 1258 620 43803 572 638 30603 25899 20254 14589 5665 4704 2218 808 2486 685 413 5645 4404 5515
internal_count=82872 72880 8680 2207 6473 64200 11378 4221 4078 52822 9019 1258 620 43803 572 638 30603 25899 20254 14589 5665 4704 2218 808 2486 685 413 5645 4404 5515
is_linear=0
shrinkage=0.1


Tree=32
num_leaves=31
num_cat=0
split_feature=8 19 5 8 8 4 7 17 5 5 2 5 5 5 0 5 1 5 1 5 5 5 1 5 5 0 0 6 5 7
split_gain=1368.28 2156.77 2338.84 2146.59 2330.06 1899.15 1503.53 1356.64 2421.47 4045.48 1248.25 1735.07 1901.42 1321.55 1609.02 1210.53 1184.85 1180.36 1397.72 1206.98 2998.33 1968.96 1217.72 1162.57 1758.02 3574.89 1542.06 1139.99 1123.33 2078.19
threshold=0.93750000000000011 1.0000000180025095e-35 0.07808219178082193 0.81250000000000011 0.68750000000000011 0.75000000000000011 0.99038461538461553 1.0000000180025095e-35 0.54383561643835632 0.51643835616438361 1.0000000180025095e-35 0.52191780821917821 0.52739726027397282 0.031506849315068503 0.50000000000000011 0.04246575342465754 0.58333333333333337 0.54383561643835632 0.41666666666666669 0.76301369863013713 0.77397260273972612 0.68904109589041107 0.58333333333333337 0.91643835616438374 0.78767123287671248 0.32608695652173919 0.065217391304347838 0.15000000000000005 0.48356164383561651 0.43269230769230776
decision_type=2 2 2 2 2 2 2 2 2 2 2 2 2 2 2 2 2 2 2 2 2 2 2 2 2 2 2 2 2 2
left_child=3 -2 5 4 6 15 -1 -5 9 16 13 28 -13 14 -6 -3 -9 18 -14 21 22 -19 -21 24 25 -22 -25 -28 29 -12
right_child=1 2 -4 7 10 -7 -8 8 -10 -11 11 12 17 -15 -16 -17 -18 19 -20 20 23 -23 -24 26 -26 -27 27 -29 -30 -31
leaf_value=-0.0063218448590002703 0.012902124133876709 0.098327223791537521 0.27809876764508473 -0.067102829332299371 -0.010224861633226586 0.23194931246038061 0.1349927327534621 -0.11945943928246078 -0.046423021564532402 0.51039516697384446 0.18100251531525136 -0.57889915307362871 -0.0066412768580696793 -0.036534979427222683 0.35277062694911127 -0.20900467889356486 0.23185576637689442 0.061919514490528765 0.76615148353576668 0.12741101214831527 0.59036581241167507 -0.1530292537877726 1.0258539229631425 0.39562291193591514 0.21920825925367665 -0.57732458524405961 -0.28807459851173134 0.014464079897433672 0.39500792518630629 -0.26918233233479277
leaf_weight=56880 5594 218 720 7720 288 302 763 288 1582 239 1108 48 44 2185 212 311 144 1256 50 22 39 645 48 92 747 80 148 786 200 113
leaf_count=56880 5594 218 720 7720 288 302 763 288 1582 239 1108 48 44 2185 212 311 144 1256 50 22 39 645 48 92 747 80 148 786 200 113
internal_value=0 0.0418319 0.146173 -0.00394693 0.00261001 0.0318695 -0.00445131 -0.0471782 0.0210946 0.180279 0.0527932 0.0803892 0.0467059 -0.00297442 0.143685 -0.0823537 -0.00235437 0.0542948 0.404419 0.045775 0.100796 -0.0110116 0.743486 0.0770179 0.16234 -0.194636 0.00500101 -0.0334757 0.175324 0.139339
internal_weight=0 7145 1551 75727 65754 831 57643 9973 2253 671 8111 5426 4005 2685 500 529 432 3957 94 3863 1962 1901 70 1892 866 119 1026 934 1421 1221
internal_count=82872 7145 1551 75727 65754 831 57643 9973 2253 671 8111 5426 4005 2685 500 529 432 3957 94 3863 1962 1901 70 1892 866 119 1026 934 1421 1221
is_linear=0
shrinkage=0.1


Tree=33
num_leaves=31
num_cat=0
split_feature=1 5 8 4 8 8 4 0 8 5 8 8 5 8 8 7 8 8 6 5 8 8 8 5 4 8 0 8 5 4
split_gain=1291.2 1182.03 1309.33 1804.09 1543.81 1511.62 1181.87 1423.72 2886.96 3910.61 1870.63 1581.65 1379.56 1315.09 1074.67 1044.83 1290.74 1725.45 1853.77 1155.81 2926.54 2244.91 1715.1 3903.72 2022.38 1040.65 1165.76 913.67 2084.41 1519.43
threshold=0.25000000000000006 0.023287671232876717 0.56250000000000011 0.75000000000000011 0.81250000000000011 0.43750000000000006 1.0000000180025095e-35 0.50000000000000011 1.0000000180025095e-35 0.99041095890410979 0.18750000000000003 0.81250000000000011 0.99041095890410979 0.43750000000000006 0.56250000000000011 0.74038461538461553 0.81250000000000011 0.93750000000000011 0.48333333333333339 0.88356164383561653 0.56250000000000011 0.18750000000000003 0.68750000000000011 0.91643835616438374 1.0000000180025095e-35 0.43750000000000006 0.10869565217391305 1.0000000180025095e-35 0.97123287671232894 1.0000000180025095e-35
decision_type=2 2 2 2 2 2 2 2 2 2 2 2 2 2 2 2 2 2 2 2 2 2 2 2 2 2 2 2 2 2
left_child=1 2 3 5 -4 -1 7 10 -9 11 -3 14 -12 -11 -10 -2 19 -18 -19 -17 21 27 23 -22 -25 -14 -27 28 -21 -29
right_child=15 6 4 -5 -6 -7 -8 8 9 13 12 -13 25 -15 -16 16 17 18 -20 20 22 -23 -24 24 -26 26 -28 29 -30 -31
leaf_value=0.44254169570075147 -0.015861067428426568 0.35351927551559936 0.52129622248319707 -0.14604954589898678 0.05505116229602533 -0.21082871945885323 0.010708009170039955 -0.24053797100981078 0.63170440520590809 0.47558601633194952 -0.15159945158990409 1.085763283495633 -0.17152663342752242 -0.27752036706180028 0.13359200996346773 0.063987914583015712 -0.094088967564139342 -0.04128111223743839 0.26392650358459874 0.074791619670076345 -0.21340507285106775 -0.083184583292914241 0.0061200025329561187 0.13217172215307696 0.43780611306095524 -0.11123075796799227 0.77382199790166784 0.40402584747527731 -0.21070116755656071 0.063295372697279917
leaf_weight=135 43529 133 158 239 129 48 21782 96 134 31 404 53 37 92 64 5246 2098 521 322 883 192 3484 889 433 433 22 46 160 360 719
leaf_count=135 43529 133 158 239 129 48 21782 96 134 31 404 53 37 92 64 5246 2098 521 322 883 192 3484 889 433 433 22 46 160 360 719
internal_value=0 0.0197798 0.146945 0.0348756 0.31173 0.271166 0.0158417 0.116401 0.248645 0.374211 0.0195859 0.600573 -0.0676698 -0.0877131 0.470698 -0.00787702 0.0142029 -0.0455361 0.0752988 0.0279299 0.00288552 -0.0337983 0.108509 0.194543 0.284989 0.25526 0.487481 0.0472866 -0.00789334 0.125317
internal_weight=0 23603 709 422 287 183 22894 1112 470 374 642 251 509 123 198 59269 15740 2941 843 12799 7553 5606 1947 1058 866 105 68 2122 1243 879
internal_count=82872 23603 709 422 287 183 22894 1112 470 374 642 251 509 123 198 59269 15740 2941 843 12799 7553 5606 1947 1058 866 105 68 2122 1243 879
is_linear=0
shrinkage=0.1


Tree=34
num_leaves=31
num_cat=0
split_feature=8 8 16 5 5 7 8 2 5 5 5 5 5 5 8 5 5 5 8 0 8 8 5 4 5 8 8 5 5 5
split_gain=1134.04 2382.58 20629.1 20518.8 9363.62 4160.72 4457.6 4010.91 2545.35 2218.52 2491.71 8959.07 2432.53 2061.64 21096.3 45211.4 6683.78 2882.72 2726.65 2363.06 2093.36 1982.3 1974.08 1898.45 1855.74 2528.49 4216.98 2133.77 2128.49 2220.74
threshold=1.0000000180025095e-35 0.18750000000000003 1.0000000180025095e-35 0.28082191780821925 0.19863013698630141 0.1057692307692308 0.56250000000000011 1.0000000180025095e-35 0.012328767123287674 0.78767123287671248 0.58767123287671252 0.54383561643835632 0.88630136986301389 0.28630136986301374 0.31250000000000006 0.20410958904109591 0.28082191780821925 0.24794520547945212 0.43750000000000006 0.63043478260869579 0.43750000000000006 0.81250000000000011 0.56575342465753431 1.0000000180025095e-35 0.92739726027397273 0.56250000000000011 0.68750000000000011 0.91917808219178088 0.62602739726027401 0.48356164383561651
decision_type=2 2 2 2 2 2 2 2 2 2 2 2 2 2 2 2 2 2 2 2 2 2 2 2 2 2 2 2 2 2
